{"learner":{"attributes":{"best_iteration":"98","best_score":"7.004970928294116"},"feature_names":["effective_price","discount_pct","time_to_expiry","base_price","lag1_log_sales","lag7_log_sales","lag14_log_sales","lag28_log_sales","rm7_log_sales","rm28_log_sales","promo_in_last_7d","dow","month","year","family_BREAD_BAKERY","family_DAIRY","family_DELI","family_EGGS","family_MEATS","family_POULTRY","family_PREPARED_FOODS","family_PRODUCE","family_SEAFOOD","class_2002","class_2004","class_2006","class_2008","class_2010","class_2012","class_2014","class_2016","class_2018","class_2020","class_2022","class_2024","class_2026","class_2028","class_2030","class_2032","class_2034","class_2070","class_2074","class_2102","class_2103","class_2104","class_2108","class_2112","class_2114","class_2116","class_2122","class_2124","class_2128","class_2130","class_2142","class_2152","class_2156","class_2162","class_2164","class_2166","class_2168","class_2170","class_2172","class_2174","class_2178","class_2302","class_2304","class_2306","class_2372","class_2412","class_2416","class_2420","class_2502","class_2504","class_2506","class_2630","class_2632","class_2636","class_2640","class_2642","class_2644","class_2646","class_2650","class_2652","class_2654","class_2662","class_2664","class_2690","class_2702","class_2704","class_2708","class_2712","class_2714","class_2716","class_2718","class_2720","class_2722","class_2750","class_2752","class_2756","class_2782","class_2786","class_2802","class_2806","class_2850","class_2854","class_2864","class_2904","class_2906","class_2960","class_2962","class_2966","class_2980","class_2986","store_nbr_1","store_nbr_10","store_nbr_11","store_nbr_12","store_nbr_13","store_nbr_14","store_nbr_15","store_nbr_16","store_nbr_17","store_nbr_18","store_nbr_19","store_nbr_2","store_nbr_20","store_nbr_21","store_nbr_22","store_nbr_23","store_nbr_24","store_nbr_25","store_nbr_26","store_nbr_27","store_nbr_28","store_nbr_29","store_nbr_3","store_nbr_30","store_nbr_31","store_nbr_32","store_nbr_33","store_nbr_34","store_nbr_35","store_nbr_36","store_nbr_37","store_nbr_38","store_nbr_39","store_nbr_4","store_nbr_40","store_nbr_41","store_nbr_42","store_nbr_43","store_nbr_44","store_nbr_45","store_nbr_46","store_nbr_47","store_nbr_48","store_nbr_49","store_nbr_5","store_nbr_50","store_nbr_51","store_nbr_52","store_nbr_53","store_nbr_54","store_nbr_6","store_nbr_7","store_nbr_8","store_nbr_9","cluster_1","cluster_10","cluster_11","cluster_12","cluster_13","cluster_14","cluster_15","cluster_16","cluster_17","cluster_2","cluster_3","cluster_4","cluster_5","cluster_6","cluster_7","cluster_8","cluster_9"],"feature_types":["float","float","int","float","float","float","float","float","float","float","int","int","int","int","i","i","i","i","i","i","i","i","i","i","i","i","i","i","i","i","i","i","i","i","i","i","i","i","i","i","i","i","i","i","i","i","i","i","i","i","i","i","i","i","i","i","i","i","i","i","i","i","i","i","i","i","i","i","i","i","i","i","i","i","i","i","i","i","i","i","i","i","i","i","i","i","i","i","i","i","i","i","i","i","i","i","i","i","i","i","i","i","i","i","i","i","i","i","i","i","i","i","i","i","i","i","i","i","i","i","i","i","i","i","i","i","i","i","i","i","i","i","i","i","i","i","i","i","i","i","i","i","i","i","i","i","i","i","i","i","i","i","i","i","i","i","i","i","i","i","i","i","i","i","i","i","i","i","i","i","i","i","i","i","i","i","i","i","i","i","i","i","i","i"],"gradient_booster":{"model":{"gbtree_model_param":{"num_parallel_tree":"1","num_trees":"149"},"iteration_indptr":[0,1,2,3,4,5,6,7,8,9,10,11,12,13,14,15,16,17,18,19,20,21,22,23,24,25,26,27,28,29,30,31,32,33,34,35,36,37,38,39,40,41,42,43,44,45,46,47,48,49,50,51,52,53,54,55,56,57,58,59,60,61,62,63,64,65,66,67,68,69,70,71,72,73,74,75,76,77,78,79,80,81,82,83,84,85,86,87,88,89,90,91,92,93,94,95,96,97,98,99,100,101,102,103,104,105,106,107,108,109,110,111,112,113,114,115,116,117,118,119,120,121,122,123,124,125,126,127,128,129,130,131,132,133,134,135,136,137,138,139,140,141,142,143,144,145,146,147,148,149],"tree_info":[0,0,0,0,0,0,0,0,0,0,0,0,0,0,0,0,0,0,0,0,0,0,0,0,0,0,0,0,0,0,0,0,0,0,0,0,0,0,0,0,0,0,0,0,0,0,0,0,0,0,0,0,0,0,0,0,0,0,0,0,0,0,0,0,0,0,0,0,0,0,0,0,0,0,0,0,0,0,0,0,0,0,0,0,0,0,0,0,0,0,0,0,0,0,0,0,0,0,0,0,0,0,0,0,0,0,0,0,0,0,0,0,0,0,0,0,0,0,0,0,0,0,0,0,0,0,0,0,0,0,0,0,0,0,0,0,0,0,0,0,0,0,0,0,0,0,0,0,0],"trees":[{"base_weights":[6.911788E-4,-2.2435434E0,6.080427E1,-4.752177E0,1.0353586E1,4.8445415E1,1.320116E2,-6.3558908E0,-1.354364E0,6.8612013E0,1.9801786E1,4.0300648E1,7.4896706E1,1.1636346E2,1.772176E2,-7.242832E0,-5.1664977E0,-2.6271882E0,4.84825E-1,5.88311E0,1.4025691E1,1.7696804E1,3.0352587E1,3.5260494E1,5.472816E1,6.4387024E1,9.2218025E1,9.231374E1,1.3074954E2,1.4880392E2,1.4586958E1,-7.7984405E0,-6.7652435E0,-5.6401505E0,-4.4527664E0,-3.012876E0,-1.0593756E0,2.3202818E-2,3.9603658E0,4.275992E0,8.705722E0,1.2777288E1,2.381279E1,1.5771116E1,2.3188015E1,2.745773E1,4.770874E1,3.248844E1,4.610429E1,5.0922653E1,6.795137E1,5.510816E1,7.4350555E1,8.4379684E1,1.09324036E2,7.7509186E1,1.04020805E2,1.2569063E2,1.5826134E2,3.5653603E1,1.5152745E2,-8.22881E0,-7.5922327E0,-6.767645E0,2.7624054E1,-5.683146E0,-7.892482E-1,-4.5466094E0,-6.4522064E-1,-3.3429549E0,-1.9799467E0,-1.1459237E0,1.2467592E1,-3.4315556E-1,1.9471875E0,3.3330507E0,8.74813E0,3.744231E0,6.8889837E0,7.8624496E0,1.0902732E1,1.1830705E1,1.7596983E1,2.29838E1,7.326973E1,1.3875892E1,1.8354828E1,2.1175428E1,2.7268713E1,2.423434E1,3.3156937E1,4.5648113E1,1.3656506E2,2.9810661E1,3.796724E1,4.3943188E1,5.7898193E1,4.6791203E1,5.7687447E1,5.9551163E1,7.259489E1,4.6475105E1,5.9895382E1,6.7255745E1,8.078187E1,8.0097244E1,9.672157E1,9.785477E1,1.1912319E2,7.854788E1,3.081054E0,1.8650555E1,1.0493061E2,1.1345023E2,1.3336282E2,5.0177273E1,1.5968005E2,-3.2590377E-1,4.6043363E0,1.2246388E1,1.7764561E0,-8.59799E0,-8.105979E0,-7.59409E0,9.005054E0,-6.9467406E0,-6.3952184E0,2.542155E0,6.066162E-1,-5.905082E0,-5.3320475E0,-9.72092E-1,2.8866162E0,-4.7325506E0,-3.87092E0,-1.5248462E0,4.1400476E0,-3.6615455E0,-2.6532352E0,-2.0037122E0,2.6729605E1,-1.4940652E0,7.8196883E-1,1.0207417E1,2.464336E1,-7.380993E-1,6.2235093E-1,1.8997364E0,4.7262726E1,3.0748649E0,1.6470488E1,8.438293E0,4.2754884E0,3.0823328E0,5.5311956E0,6.569766E0,1.4760151E1,6.699377E0,9.474989E0,9.191575E0,1.2250272E1,9.610222E0,1.3349501E1,1.4389199E1,2.078053E1,2.0394234E1,3.714653E1,8.613784E1,1.8488215E0,1.2664903E1,1.6359898E1,1.6619444E1,2.0819443E1,1.9463974E1,2.388971E1,2.5550373E1,3.2912453E1,2.1076393E1,2.6715132E1,3.271837E1,1.0142155E1,4.7663548E1,1.0680436E1,1.2077199E1,2.006616E0,2.792664E1,3.480964E1,3.5800564E1,4.322868E1,4.099653E1,4.8893967E1,9.1616206E-2,5.8223385E1,4.369617E1,5.319457E1,5.6526314E1,7.483412E1,2.5822605E1,6.0934566E1,6.835686E1,8.249484E1,7.9504295E1,4.4644897E1,5.512413E1,6.461479E1,2.4463305E1,6.756874E1,7.298325E1,8.455313E1,7.258768E1,8.416168E1,8.204562E-1,9.7233055E1,3.5050552E1,9.906234E1,1.07247475E2,1.3293974E2,-3.6590376E-1,7.89635E1,6.686962E-1,-1.17151715E-1,-3.8362375E-1,2.2451415E0,1.0552726E2,1.4754883E0,2.999762E-1,1.13850044E2,4.3335643E0,1.3381569E2,-2.4382377E-1,6.265096E0,1.2829242E1,3.2066162E0,-6.882121E-1,-3.8924074E-1,-6.50689E-1,-6.1684686E-1,-6.199451E-1,-5.939483E-1,1.2088217E0,-3.7242377E-1,-5.5631524E-1,-1.12747006E-1,-5.1487076E-1,-4.0962112E-1,-4.7613892E-1,-3.8973188E-1,-3.7958166E-1,-4.3408018E-1,-1.471965E-1,2.6846656E-1,-4.1609716E-1,-3.660345E-1,-2.3196827E-1,-3.2804465E-1,-1.3310347E-1,1.6064442E0,2.606881E-1,8.1123006E-1,-3.5569796E-1,-2.8412497E-1,-3.6060813E-1,-2.0430765E-1,-1.7809153E-1,-1.5859852E-2,9.299243E-1,2.67745E0,-1.3829611E-1,4.772098E-2,5.4418635E-2,2.0542936E0,4.8568794E-1,1.3134594E0,2.1675682E0,2.013362E-1,-8.6280555E-2,3.1746754E-3,2.1209521E-2,1.3387184E-1,1.1580983E-1,3.3367524E-1,4.4429646E0,5.666162E-1,1.9847915E-1,3.8725796E-1,1.3724232E0,9.7984314E-2,6.4700264E-1,1.8759091E0,2.1065958E-1,3.4540313E-1,4.2558402E-1,1.2114486E0,4.339598E-1,6.74668E-1,1.1095046E0,3.3100643E0,4.6449664E-1,6.3969254E-1,1.8497077E0,7.505806E-1,8.069593E-3,7.6982886E-1,9.5778775E-1,1.6129428E0,7.251715E-1,1.1672972E0,9.792337E-1,1.2779853E0,1.106245E0,2.167593E0,1.5049044E0,2.2674065E0,1.3658412E0,1.9246734E0,-2.8261837E-1,3.0622728E0,8.789924E0,2.062155E0,9.4931066E-1,1.1975677E0,1.2878323E0,5.399938E0,2.9506774E0,1.3098485E0,1.6311917E0,2.5587146E0,1.5416762E0,4.0810905E0,4.2708783E0,1.8843179E0,1.3246663E0,2.099837E0,2.7739305E0,5.834354E-1,2.475876E-1,1.722082E0,1.0626311E0,2.1747677E0,9.965139E-1,2.6918466E0,3.3271463E0,4.9299555E0,-1.792281E-2,1.6413492E0,2.0521016E0,2.4552758E0,2.4975274E0,2.9470053E0,2.6769872E0,3.1060383E0,3.4681027E0,9.421549E-1,3.112463E0,3.752601E0,7.173622E-2,3.922222E0,2.0132098E0,4.709161E0,-6.157567E-2,3.5124907E0,3.935545E0,4.662347E0,4.1575975E0,4.7145247E0,6.1759014E0,-3.3383787E-2,2.666162E-1,2.2847478E0,4.920386E0,9.6882164E-1,7.610521E0,5.2630944E0,6.730128E0,2.5346842E0,8.796096E0,3.0159705E0,3.2052407E0,4.3142285E0,4.483153E0,1.2799134E0,5.2240133E0,1.6022018E0,2.4621549E0,2.2089621E-1,5.1591606E0,5.925413E0,5.8702216E0,9.7833616E-1,3.891869E0,6.8614163E0,2.6544137E0,5.888434E0,6.773776E0,2.1499243E0,7.449673E0,1.0220803E1,6.886562E-1,3.2796216E0,1.0140163E0,7.971788E0,7.033391E0,9.222754E0,1.0793471E1,3.977035E0,6.6986737E0,5.245092E0,7.7761273E0,9.287427E0,9.199722E0,5.011578E0,9.362665E0,1.09820175E1],"categories":[],"categories_nodes":[],"categories_segments":[],"categories_sizes":[],"default_left":[0,0,0,0,0,0,0,0,0,0,0,0,0,0,0,0,0,0,0,0,0,0,0,0,0,0,0,0,0,0,0,0,0,0,0,0,0,0,0,0,0,0,0,0,0,0,0,0,0,0,0,0,0,0,0,0,0,0,0,0,0,0,0,0,0,0,0,0,0,0,0,0,0,0,0,0,0,0,0,0,0,0,0,0,0,0,0,0,0,0,0,0,0,0,0,0,0,0,0,0,0,0,0,0,0,0,0,0,0,0,0,0,0,0,0,0,0,0,0,0,0,0,0,0,0,0,0,0,0,0,0,0,0,0,0,0,0,0,0,0,0,0,0,0,0,0,0,0,0,0,0,0,0,0,0,0,0,0,0,0,0,0,0,0,0,0,0,0,0,0,0,0,0,0,0,0,0,0,0,0,0,0,0,0,0,0,0,0,0,0,0,0,0,0,0,0,0,0,0,0,0,0,0,0,0,0,0,0,0,0,0,0,0,0,0,0,0,0,0,0,0,0,0,0,0,0,0,0,0,0,0,0,0,0,0,0,0,0,0,0,0,0,0,0,0,0,0,0,0,0,0,0,0,0,0,0,0,0,0,0,0,0,0,0,0,0,0,0,0,0,0,0,0,0,0,0,0,0,0,0,0,0,0,0,0,0,0,0,0,0,0,0,0,0,0,0,0,0,0,0,0,0,0,0,0,0,0,0,0,0,0,0,0,0,0,0,0,0,0,0,0,0,0,0,0,0,0,0,0,0,0,0,0,0,0,0,0,0,0,0,0,0,0,0,0,0,0,0,0,0,0,0,0,0,0,0,0,0,0,0,0,0,0,0,0,0,0,0,0,0,0,0,0,0,0,0,0,0,0,0,0,0,0,0,0,0,0,0,0,0,0,0,0,0,0,0,0,0,0,0,0,0,0,0,0,0,0,0,0,0,0,0,0],"id":0,"left_children":[1,3,5,7,9,11,13,15,17,19,21,23,25,27,29,31,33,35,37,39,41,43,45,47,49,51,53,55,57,59,-1,61,63,65,67,69,71,73,75,77,79,81,83,85,87,89,91,93,95,97,99,101,103,105,107,109,111,113,115,117,119,121,123,125,127,129,131,133,135,137,139,141,143,145,147,149,151,153,155,157,159,161,163,165,167,169,171,173,175,177,179,181,183,185,187,189,191,193,195,197,199,201,203,205,207,209,211,213,215,217,219,221,223,225,227,229,231,-1,-1,-1,-1,233,235,237,239,241,243,-1,-1,245,247,249,-1,251,253,255,257,259,261,263,265,267,269,271,273,275,277,279,281,283,285,287,-1,289,291,293,295,297,299,301,303,305,307,309,311,313,315,317,-1,319,321,323,325,327,329,331,333,335,337,339,-1,341,343,-1,-1,345,347,349,351,353,355,-1,357,359,361,363,365,367,369,371,373,375,377,379,381,383,385,387,389,391,393,-1,395,397,399,401,403,-1,405,-1,-1,-1,-1,407,-1,-1,409,-1,411,-1,-1,-1,-1,-1,-1,-1,-1,-1,-1,-1,-1,-1,-1,-1,-1,-1,-1,-1,-1,-1,-1,-1,-1,-1,-1,-1,-1,-1,-1,-1,-1,-1,-1,-1,-1,-1,-1,-1,-1,-1,-1,-1,-1,-1,-1,-1,-1,-1,-1,-1,-1,-1,-1,-1,-1,-1,-1,-1,-1,-1,-1,-1,-1,-1,-1,-1,-1,-1,-1,-1,-1,-1,-1,-1,-1,-1,-1,-1,-1,-1,-1,-1,-1,-1,-1,-1,-1,-1,-1,-1,-1,-1,-1,-1,-1,-1,-1,-1,-1,-1,-1,-1,-1,-1,-1,-1,-1,-1,-1,-1,-1,-1,-1,-1,-1,-1,-1,-1,-1,-1,-1,-1,-1,-1,-1,-1,-1,-1,-1,-1,-1,-1,-1,-1,-1,-1,-1,-1,-1,-1,-1,-1,-1,-1,-1,-1,-1,-1,-1,-1,-1,-1,-1,-1,-1,-1,-1,-1,-1,-1,-1,-1,-1,-1,-1,-1,-1,-1,-1,-1,-1,-1,-1,-1,-1,-1,-1,-1,-1,-1,-1,-1,-1],"loss_changes":[4.4158456E7,9.862492E6,1.0130796E7,1.4181735E6,1.710052E6,2.11195E6,1.184068E6,1.86481E5,1.9535945E5,2.6510325E5,3.10104E5,5.4403E5,4.14577E5,4.26632E5,3.6287E4,2.6822E4,2.5508875E4,2.9819875E4,5.4762438E4,1.5101588E5,5.5227688E4,1.22963E5,1.155065E5,1.65844E5,9.42635E4,1.291245E5,1.074265E5,7.47835E4,9.0202E4,1.678575E4,0E0,4.0915E3,4.685E3,9.46375E3,1.07643125E4,1.3488844E4,1.1416061E4,2.123975E4,1.1990598E4,2.9459125E4,2.2294812E4,1.8191438E4,1.9348594E4,4.2043E4,2.4274125E4,3.5845875E4,5.4372062E4,6.3963E4,2.62825E4,3.955825E4,1.2488875E4,2.8213E4,2.61415E4,2.40185E4,1.868825E4,1.6379125E4,1.854825E4,4.807E4,1.023525E4,2.8446255E3,1.0653875E4,6.17375E2,1.044375E3,3.588E3,9.196265E1,3.474875E3,2.731798E3,3.6765625E3,3.0622244E3,6.5813125E3,6.5953984E3,6.496841E3,1.4546562E3,9.65283E3,1.0274545E4,1.1956672E4,5.9607812E3,2.0840266E4,8.91575E3,1.631525E4,7.6073438E3,1.1250406E4,6.4410156E3,1.7800125E4,3.1729883E3,1.479425E4,1.5274E4,8.9698125E3,8.8181875E3,9.4490625E3,2.53325E4,2.239525E4,7.4507656E3,2.71415E4,1.5016125E4,1.2000375E4,3.107625E3,1.6384625E4,7.0985E3,5.8455625E3,5.814875E3,1.2893E4,7.224E3,2.834E3,4.35825E3,7.6865E3,5.63675E3,6.387375E3,8.87825E3,7.685125E3,1.0819762E2,1.01742676E3,1.152125E4,1.123975E4,7.385E3,4.731376E3,3.164E3,0E0,0E0,0E0,0E0,2.36875E1,6.1625E1,7.765E2,4.0394037E2,1.45625E3,8.849375E2,0E0,0E0,1.2999375E3,9.364375E2,1.5048386E3,0E0,1.6741562E3,1.4049219E3,1.8766438E3,5.6461035E2,1.7546875E3,1.7358828E3,3.8472266E3,4.2527734E2,4.0223594E3,3.7337395E3,1.2875801E3,4.1995215E2,4.7565146E3,2.758868E3,4.9392285E3,1.2689609E3,3.630129E3,6.8892773E2,2.2375742E3,0E0,7.1278203E3,9.6015E3,7.3154688E3,2.7237676E3,5.8339688E3,4.4109062E3,5.79775E3,3.8703438E3,3.6016094E3,5.6307188E3,1.9923672E3,4.366078E3,4.8221562E3,3.6806406E3,5.7642227E3,0E0,6.000375E3,2.0765625E4,1.0118375E4,6.565375E3,6.6352812E3,6.47675E3,4.3829062E3,1.0082672E4,4.5176406E3,4.12875E3,1.3068875E4,0E0,2.3471188E4,2.0425564E3,0E0,0E0,1.2880625E4,4.76975E3,6.0215E3,1.1051875E3,5.6888125E3,2.2231875E3,0E0,2.1428125E3,6.0275E3,3.2961875E3,2.822375E3,5.9043594E3,3.972124E2,3.4873125E3,7.287625E3,3.7187812E3,1.2401586E4,8.892E3,7.8769375E3,5.8734375E3,4.630952E2,1.86725E3,2.0748125E3,6.075625E3,4.2155E3,6.118375E3,0E0,6.806875E3,2.7587354E2,5.15525E3,2.448125E3,3.33825E3,0E0,7.996625E3,0E0,0E0,0E0,0E0,1.1499E4,0E0,0E0,8.35325E3,0E0,7.4465E3,0E0,0E0,0E0,0E0,0E0,0E0,0E0,0E0,0E0,0E0,0E0,0E0,0E0,0E0,0E0,0E0,0E0,0E0,0E0,0E0,0E0,0E0,0E0,0E0,0E0,0E0,0E0,0E0,0E0,0E0,0E0,0E0,0E0,0E0,0E0,0E0,0E0,0E0,0E0,0E0,0E0,0E0,0E0,0E0,0E0,0E0,0E0,0E0,0E0,0E0,0E0,0E0,0E0,0E0,0E0,0E0,0E0,0E0,0E0,0E0,0E0,0E0,0E0,0E0,0E0,0E0,0E0,0E0,0E0,0E0,0E0,0E0,0E0,0E0,0E0,0E0,0E0,0E0,0E0,0E0,0E0,0E0,0E0,0E0,0E0,0E0,0E0,0E0,0E0,0E0,0E0,0E0,0E0,0E0,0E0,0E0,0E0,0E0,0E0,0E0,0E0,0E0,0E0,0E0,0E0,0E0,0E0,0E0,0E0,0E0,0E0,0E0,0E0,0E0,0E0,0E0,0E0,0E0,0E0,0E0,0E0,0E0,0E0,0E0,0E0,0E0,0E0,0E0,0E0,0E0,0E0,0E0,0E0,0E0,0E0,0E0,0E0,0E0,0E0,0E0,0E0,0E0,0E0,0E0,0E0,0E0,0E0,0E0,0E0,0E0,0E0,0E0,0E0,0E0,0E0,0E0,0E0,0E0,0E0,0E0,0E0,0E0,0E0,0E0,0E0,0E0,0E0,0E0,0E0,0E0,0E0,0E0,0E0,0E0,0E0,0E0,0E0,0E0,0E0,0E0,0E0,0E0,0E0,0E0],"parents":[2147483647,0,0,1,1,2,2,3,3,4,4,5,5,6,6,7,7,8,8,9,9,10,10,11,11,12,12,13,13,14,14,15,15,16,16,17,17,18,18,19,19,20,20,21,21,22,22,23,23,24,24,25,25,26,26,27,27,28,28,29,29,31,31,32,32,33,33,34,34,35,35,36,36,37,37,38,38,39,39,40,40,41,41,42,42,43,43,44,44,45,45,46,46,47,47,48,48,49,49,50,50,51,51,52,52,53,53,54,54,55,55,56,56,57,57,58,58,59,59,60,60,61,61,62,62,63,63,64,64,65,65,66,66,67,67,68,68,69,69,70,70,71,71,72,72,73,73,74,74,75,75,76,76,77,77,78,78,79,79,80,80,81,81,82,82,83,83,84,84,85,85,86,86,87,87,88,88,89,89,90,90,91,91,92,92,93,93,94,94,95,95,96,96,97,97,98,98,99,99,100,100,101,101,102,102,103,103,104,104,105,105,106,106,107,107,108,108,109,109,110,110,111,111,112,112,113,113,114,114,115,115,116,116,121,121,122,122,123,123,124,124,125,125,126,126,129,129,130,130,131,131,133,133,134,134,135,135,136,136,137,137,138,138,139,139,140,140,141,141,142,142,143,143,144,144,145,145,146,146,147,147,148,148,149,149,150,150,151,151,153,153,154,154,155,155,156,156,157,157,158,158,159,159,160,160,161,161,162,162,163,163,164,164,165,165,166,166,167,167,169,169,170,170,171,171,172,172,173,173,174,174,175,175,176,176,177,177,178,178,179,179,181,181,182,182,185,185,186,186,187,187,188,188,189,189,190,190,192,192,193,193,194,194,195,195,196,196,197,197,198,198,199,199,200,200,201,201,202,202,203,203,204,204,205,205,206,206,207,207,208,208,209,209,210,210,212,212,213,213,214,214,215,215,216,216,218,218,223,223,226,226,228,228],"right_children":[2,4,6,8,10,12,14,16,18,20,22,24,26,28,30,32,34,36,38,40,42,44,46,48,50,52,54,56,58,60,-1,62,64,66,68,70,72,74,76,78,80,82,84,86,88,90,92,94,96,98,100,102,104,106,108,110,112,114,116,118,120,122,124,126,128,130,132,134,136,138,140,142,144,146,148,150,152,154,156,158,160,162,164,166,168,170,172,174,176,178,180,182,184,186,188,190,192,194,196,198,200,202,204,206,208,210,212,214,216,218,220,222,224,226,228,230,232,-1,-1,-1,-1,234,236,238,240,242,244,-1,-1,246,248,250,-1,252,254,256,258,260,262,264,266,268,270,272,274,276,278,280,282,284,286,288,-1,290,292,294,296,298,300,302,304,306,308,310,312,314,316,318,-1,320,322,324,326,328,330,332,334,336,338,340,-1,342,344,-1,-1,346,348,350,352,354,356,-1,358,360,362,364,366,368,370,372,374,376,378,380,382,384,386,388,390,392,394,-1,396,398,400,402,404,-1,406,-1,-1,-1,-1,408,-1,-1,410,-1,412,-1,-1,-1,-1,-1,-1,-1,-1,-1,-1,-1,-1,-1,-1,-1,-1,-1,-1,-1,-1,-1,-1,-1,-1,-1,-1,-1,-1,-1,-1,-1,-1,-1,-1,-1,-1,-1,-1,-1,-1,-1,-1,-1,-1,-1,-1,-1,-1,-1,-1,-1,-1,-1,-1,-1,-1,-1,-1,-1,-1,-1,-1,-1,-1,-1,-1,-1,-1,-1,-1,-1,-1,-1,-1,-1,-1,-1,-1,-1,-1,-1,-1,-1,-1,-1,-1,-1,-1,-1,-1,-1,-1,-1,-1,-1,-1,-1,-1,-1,-1,-1,-1,-1,-1,-1,-1,-1,-1,-1,-1,-1,-1,-1,-1,-1,-1,-1,-1,-1,-1,-1,-1,-1,-1,-1,-1,-1,-1,-1,-1,-1,-1,-1,-1,-1,-1,-1,-1,-1,-1,-1,-1,-1,-1,-1,-1,-1,-1,-1,-1,-1,-1,-1,-1,-1,-1,-1,-1,-1,-1,-1,-1,-1,-1,-1,-1,-1,-1,-1,-1,-1,-1,-1,-1,-1,-1,-1,-1,-1,-1,-1,-1,-1,-1],"split_conditions":[3.6374056E0,2.4957259E0,4.7648373E0,1.8133638E0,3.1117742E0,4.35131E0,5.3033047E0,1.4121593E0,2.1656265E0,3.3408103E0,3.7612002E0,4.083463E0,4.4162335E0,4.762174E0,4.750914E0,1.1537148E0,1.6394151E0,2.4248912E0,2.8935335E0,2.8035862E0,3.6888795E0,3.4319384E0,4.2195077E0,4.063387E0,4.4316096E0,4.3307333E0,4.7543397E0,4.4162335E0,5.3033047E0,3.1209543E0,1.4586958E1,9.575259E-1,2.5157888E0,2.034676E0,2.1435695E0,2.0928795E0,2.8313675E0,2.500825E0,3.1396163E0,3.0778651E0,3.218876E0,3.5263605E0,1E0,3.3672957E0,3.6888795E0,3.8179321E0,5.3033047E0,3.8960764E0,4.3307333E0,4.1743875E0,4.494082E0,4.063387E0,4.5108595E0,4.7049327E0,4.7049327E0,1E0,2.6390574E0,4.7049327E0,2.9957323E0,2.91E0,1E0,8.154253E-1,3.4886587E0,1.3278971E0,1.3962446E0,1.5468128E0,4.494082E0,2.1007137E0,2.4280026E0,1.9980248E0,3.074971E0,2.6615174E0,3.637586E0,2.3569264E0,3.4092984E0,3.0469675E0,4.0073333E0,2.7496681E0,3.7546906E0,2.969655E0,2.9033976E0,2.8979518E0,3.2580965E0,3.9227452E0,4E0,3.3171847E0,3.3746138E0,3.6109178E0,4.0073333E0,3.5263605E0,5.3033047E0,3.9449022E0,6E0,3.8501475E0,4.0073333E0,4.0943446E0,1.0235295E0,4.0943446E0,4.7543397E0,3.8960764E0,4.4998097E0,2.5478032E0,4.083463E0,2.6804733E0,4.519307E0,4.519307E0,1.6737264E0,3.6888795E0,4.22E0,1.5058537E0,7.53E0,2.42E0,1E0,3.6849604E0,3.6888795E0,1.211E1,1E0,-3.2590377E-1,4.6043363E0,1.2246388E1,1.7764561E0,2.1162555E0,1.0817862E0,1.0706245E0,2.6E0,2.8332133E0,1.7037655E0,2.542155E0,6.066162E-1,1.7778789E0,2E0,2.311101E0,2.8866162E0,1.5702928E0,2E0,1E0,2.8313675E0,1.6330402E0,1.6255951E0,2.3488846E0,2.29E0,2.37422E0,1E0,3.1780539E0,1E0,2.4248912E0,2.7215586E0,2.6947148E0,1.9856801E0,2.8396046E0,1E0,1E0,4.2754884E0,2.944439E0,3.1682503E0,2.6947148E0,1E0,2.9957323E0,1.5600376E0,2.37422E0,3.7546906E0,3.7612002E0,3.637586E0,1E0,3.8501475E0,3.6992505E0,2.2643473E0,3.7612002E0,1.8488215E0,3.4011974E0,1E0,1.1435857E0,4.2195077E0,1E0,1.006497E0,2.8345065E0,1E0,2.8979518E0,2.4432163E0,1.9310865E0,1.0142155E1,4.3307333E0,1.9574151E0,1.2077199E1,2.006616E0,3.7866461E0,3.7376697E0,4.0775375E0,1E0,3.9655795E0,2.7838724E0,9.1616206E-2,2.3374696E0,2.8903718E0,4.2282124E0,4.0073333E0,1E0,1E0,1E0,4.0682735E0,1.174E1,4.750914E0,4.083463E0,1E0,1E0,3.28E0,4.4998097E0,1E0,3.4886587E0,4.2282124E0,1E0,8.204562E-1,5.41E0,2.42E0,3.750059E-1,4.762174E0,1E0,-3.6590376E-1,6.97E0,6.686962E-1,-1.17151715E-1,-3.8362375E-1,2.2451415E0,4.750914E0,1.4754883E0,2.999762E-1,1E0,4.3335643E0,4.7543397E0,-2.4382377E-1,6.265096E0,1.2829242E1,3.2066162E0,-6.882121E-1,-3.8924074E-1,-6.50689E-1,-6.1684686E-1,-6.199451E-1,-5.939483E-1,1.2088217E0,-3.7242377E-1,-5.5631524E-1,-1.12747006E-1,-5.1487076E-1,-4.0962112E-1,-4.7613892E-1,-3.8973188E-1,-3.7958166E-1,-4.3408018E-1,-1.471965E-1,2.6846656E-1,-4.1609716E-1,-3.660345E-1,-2.3196827E-1,-3.2804465E-1,-1.3310347E-1,1.6064442E0,2.606881E-1,8.1123006E-1,-3.5569796E-1,-2.8412497E-1,-3.6060813E-1,-2.0430765E-1,-1.7809153E-1,-1.5859852E-2,9.299243E-1,2.67745E0,-1.3829611E-1,4.772098E-2,5.4418635E-2,2.0542936E0,4.8568794E-1,1.3134594E0,2.1675682E0,2.013362E-1,-8.6280555E-2,3.1746754E-3,2.1209521E-2,1.3387184E-1,1.1580983E-1,3.3367524E-1,4.4429646E0,5.666162E-1,1.9847915E-1,3.8725796E-1,1.3724232E0,9.7984314E-2,6.4700264E-1,1.8759091E0,2.1065958E-1,3.4540313E-1,4.2558402E-1,1.2114486E0,4.339598E-1,6.74668E-1,1.1095046E0,3.3100643E0,4.6449664E-1,6.3969254E-1,1.8497077E0,7.505806E-1,8.069593E-3,7.6982886E-1,9.5778775E-1,1.6129428E0,7.251715E-1,1.1672972E0,9.792337E-1,1.2779853E0,1.106245E0,2.167593E0,1.5049044E0,2.2674065E0,1.3658412E0,1.9246734E0,-2.8261837E-1,3.0622728E0,8.789924E0,2.062155E0,9.4931066E-1,1.1975677E0,1.2878323E0,5.399938E0,2.9506774E0,1.3098485E0,1.6311917E0,2.5587146E0,1.5416762E0,4.0810905E0,4.2708783E0,1.8843179E0,1.3246663E0,2.099837E0,2.7739305E0,5.834354E-1,2.475876E-1,1.722082E0,1.0626311E0,2.1747677E0,9.965139E-1,2.6918466E0,3.3271463E0,4.9299555E0,-1.792281E-2,1.6413492E0,2.0521016E0,2.4552758E0,2.4975274E0,2.9470053E0,2.6769872E0,3.1060383E0,3.4681027E0,9.421549E-1,3.112463E0,3.752601E0,7.173622E-2,3.922222E0,2.0132098E0,4.709161E0,-6.157567E-2,3.5124907E0,3.935545E0,4.662347E0,4.1575975E0,4.7145247E0,6.1759014E0,-3.3383787E-2,2.666162E-1,2.2847478E0,4.920386E0,9.6882164E-1,7.610521E0,5.2630944E0,6.730128E0,2.5346842E0,8.796096E0,3.0159705E0,3.2052407E0,4.3142285E0,4.483153E0,1.2799134E0,5.2240133E0,1.6022018E0,2.4621549E0,2.2089621E-1,5.1591606E0,5.925413E0,5.8702216E0,9.7833616E-1,3.891869E0,6.8614163E0,2.6544137E0,5.888434E0,6.773776E0,2.1499243E0,7.449673E0,1.0220803E1,6.886562E-1,3.2796216E0,1.0140163E0,7.971788E0,7.033391E0,9.222754E0,1.0793471E1,3.977035E0,6.6986737E0,5.245092E0,7.7761273E0,9.287427E0,9.199722E0,5.011578E0,9.362665E0,1.09820175E1],"split_indices":[8,9,5,9,9,7,6,9,9,5,5,8,9,7,4,9,9,5,5,9,6,9,7,6,8,5,6,9,5,4,0,9,8,8,8,8,8,8,6,6,7,7,93,7,6,6,7,5,5,6,4,6,5,9,9,146,4,9,4,0,127,9,4,9,5,9,4,5,8,9,8,6,5,9,8,8,7,8,6,8,4,8,6,7,11,8,5,7,7,7,6,9,2,7,7,7,7,7,6,5,6,5,8,4,7,7,6,4,0,4,0,0,150,9,4,0,138,0,0,0,0,4,8,9,0,4,8,0,0,8,11,8,0,8,11,127,8,8,8,8,0,8,41,4,19,5,6,8,5,7,36,40,0,7,8,8,130,6,5,8,6,5,5,133,7,5,8,5,0,6,66,5,7,66,6,4,115,8,6,4,0,5,4,0,0,8,4,5,147,8,9,0,4,4,8,7,115,2,133,9,0,4,8,17,159,0,6,145,4,8,145,0,0,0,5,7,117,0,0,0,0,0,0,4,0,0,31,0,6,0,0,0,0,0,0,0,0,0,0,0,0,0,0,0,0,0,0,0,0,0,0,0,0,0,0,0,0,0,0,0,0,0,0,0,0,0,0,0,0,0,0,0,0,0,0,0,0,0,0,0,0,0,0,0,0,0,0,0,0,0,0,0,0,0,0,0,0,0,0,0,0,0,0,0,0,0,0,0,0,0,0,0,0,0,0,0,0,0,0,0,0,0,0,0,0,0,0,0,0,0,0,0,0,0,0,0,0,0,0,0,0,0,0,0,0,0,0,0,0,0,0,0,0,0,0,0,0,0,0,0,0,0,0,0,0,0,0,0,0,0,0,0,0,0,0,0,0,0,0,0,0,0,0,0,0,0,0,0,0,0,0,0,0,0,0,0,0,0,0,0,0,0,0,0,0,0,0,0,0,0,0,0,0],"split_type":[0,0,0,0,0,0,0,0,0,0,0,0,0,0,0,0,0,0,0,0,0,0,0,0,0,0,0,0,0,0,0,0,0,0,0,0,0,0,0,0,0,0,0,0,0,0,0,0,0,0,0,0,0,0,0,0,0,0,0,0,0,0,0,0,0,0,0,0,0,0,0,0,0,0,0,0,0,0,0,0,0,0,0,0,0,0,0,0,0,0,0,0,0,0,0,0,0,0,0,0,0,0,0,0,0,0,0,0,0,0,0,0,0,0,0,0,0,0,0,0,0,0,0,0,0,0,0,0,0,0,0,0,0,0,0,0,0,0,0,0,0,0,0,0,0,0,0,0,0,0,0,0,0,0,0,0,0,0,0,0,0,0,0,0,0,0,0,0,0,0,0,0,0,0,0,0,0,0,0,0,0,0,0,0,0,0,0,0,0,0,0,0,0,0,0,0,0,0,0,0,0,0,0,0,0,0,0,0,0,0,0,0,0,0,0,0,0,0,0,0,0,0,0,0,0,0,0,0,0,0,0,0,0,0,0,0,0,0,0,0,0,0,0,0,0,0,0,0,0,0,0,0,0,0,0,0,0,0,0,0,0,0,0,0,0,0,0,0,0,0,0,0,0,0,0,0,0,0,0,0,0,0,0,0,0,0,0,0,0,0,0,0,0,0,0,0,0,0,0,0,0,0,0,0,0,0,0,0,0,0,0,0,0,0,0,0,0,0,0,0,0,0,0,0,0,0,0,0,0,0,0,0,0,0,0,0,0,0,0,0,0,0,0,0,0,0,0,0,0,0,0,0,0,0,0,0,0,0,0,0,0,0,0,0,0,0,0,0,0,0,0,0,0,0,0,0,0,0,0,0,0,0,0,0,0,0,0,0,0,0,0,0,0,0,0,0,0,0,0,0,0,0,0,0,0,0,0,0,0,0,0,0,0],"sum_hessian":[3.23604E5,3.12086E5,1.1518E4,2.60258E5,5.1828E4,9.816E3,1.702E3,1.76807E5,8.3451E4,3.7842E4,1.3986E4,7.507E3,2.309E3,1.267E3,4.35E2,1.01278E5,7.5529E4,4.9319E4,3.4132E4,3.3298E4,4.544E3,1.1662E4,2.324E3,5.566E3,1.941E3,1.44E3,8.69E2,4.77E2,7.9E2,7.1E1,3.64E2,4.6808E4,5.447E4,4.5396E4,3.0133E4,3.9581E4,9.738E3,3.0131E4,4.001E3,2.1219E4,1.2079E4,4.032E3,5.12E2,8.637E3,3.025E3,1.994E3,3.3E2,4.436E3,1.13E3,1.511E3,4.3E2,7.49E2,6.91E2,6E2,2.69E2,2.14E2,2.63E2,6.72E2,1.18E2,2E0,6.9E1,1.515E4,3.1658E4,5.4467E4,3E0,4.4997E4,3.99E2,2.9408E4,7.25E2,2.9994E4,9.587E3,9.677E3,6.1E1,2.5312E4,4.819E3,3.539E3,4.62E2,1.7633E4,3.586E3,8.732E3,3.347E3,3.373E3,6.59E2,5.05E2,7E0,4.986E3,3.651E3,2.03E3,9.95E2,1.277E3,7.17E2,3.24E2,6E0,2.984E3,1.452E3,9.59E2,1.71E2,9.43E2,5.68E2,1.58E2,2.72E2,2.71E2,4.78E2,3.34E2,3.57E2,4.51E2,1.49E2,1.29E2,1.4E2,2.11E2,3E0,3E0,2.6E2,2.65E2,4.07E2,2E0,1.16E2,1E0,1E0,6.8E1,1E0,3.765E3,1.1385E4,3.1655E4,3E0,3.6768E4,1.7699E4,2E0,1E0,2.756E4,1.7437E4,3.98E2,1E0,2.3057E4,6.351E3,6.13E2,1.12E2,2.0514E4,9.48E3,9.58E3,7E0,8.197E3,1.48E3,5.3E1,8E0,1.7964E4,7.348E3,4.815E3,4E0,3.472E3,6.7E1,4.6E2,2E0,1.2869E4,4.764E3,3.448E3,1.38E2,5.076E3,3.656E3,1.478E3,1.869E3,1.373E3,2E3,3.31E2,3.28E2,4.29E2,7.6E1,5E0,2E0,3.356E3,1.63E3,2.147E3,1.504E3,1.25E3,7.8E2,7.67E2,2.28E2,5.66E2,7.11E2,7.15E2,2E0,3.06E2,1.8E1,5E0,1E0,2.172E3,8.12E2,1.034E3,4.18E2,6.07E2,3.52E2,1E0,1.7E2,6.41E2,3.02E2,5.36E2,3.2E1,7E0,1.51E2,1.96E2,7.6E1,1.2E1,2.59E2,2.44E2,2.34E2,3E0,3.31E2,1.23E2,2.34E2,1.65E2,2.86E2,1E0,1.48E2,3E0,1.26E2,8E1,6E1,1E0,2.1E2,1E0,2E0,1E0,2E0,2.58E2,2E0,1E0,2.64E2,3E0,4.04E2,1E0,1E0,1.15E2,1E0,3.759E3,6E0,1.0623E4,7.62E2,1.6511E4,1.5144E4,2E0,1E0,3.672E4,4.8E1,1.7148E4,5.51E2,2.6365E4,1.195E3,2.412E3,1.5025E4,3.32E2,6.6E1,5.781E3,1.7276E4,1.217E3,5.134E3,6.1E2,3E0,9.9E1,1.3E1,2.517E3,1.7997E4,4.8E2,9E3,8.529E3,1.051E3,3E0,4E0,7.37E3,8.27E2,1.475E3,5E0,3.3E1,2E1,7E0,1E0,1.2495E4,5.469E3,5.485E3,1.863E3,4.017E3,7.98E2,3E0,1E0,2.6E3,8.72E2,6.4E1,3E0,4.51E2,9E0,9.44E3,3.429E3,4.663E3,1.01E2,2.138E3,1.31E3,1.35E2,3E0,3.009E3,2.067E3,2.3E1,3.633E3,6.7E1,1.411E3,1.808E3,6.1E1,1.24E3,1.33E2,1.41E3,5.9E2,3.19E2,1.2E1,2.63E2,6.5E1,2.28E2,2.01E2,2E0,7.4E1,3E0,2E0,2.497E3,8.59E2,1.623E3,7E0,2.4E1,2.123E3,1.451E3,5.3E1,1.244E3,6E0,7E0,7.73E2,5.7E1,7.1E2,2.13E2,1.5E1,1.4E1,5.52E2,2.5E1,6.86E2,3.2E1,6.83E2,2.16E2,9E1,9E0,9E0,1.197E3,9.75E2,2.99E2,5.13E2,5.9E2,4.44E2,4.16E2,2E0,4.54E2,1.53E2,1E0,3.51E2,4E0,1.66E2,3E0,6.38E2,1.75E2,1.27E2,1.93E2,3.43E2,3.1E1,1E0,1E0,6E0,1.49E2,2E0,1.4E1,1.82E2,7.3E1,3E0,6E0,6E0,1.77E2,8.2E1,2.38E2,6E0,2.3E2,4E0,2E0,1E0,2.32E2,9.9E1,1.22E2,1E0,9E0,2.25E2,5E0,1.6E2,2.83E2,3E0,1.34E2,1.4E1,1E0,2E0,1E0,1.25E2,2.7E1,5.3E1,5.8E1,2E0,1.51E2,5.9E1,1.5E2,1.08E2,2.57E2,7E0,7.5E1,3.29E2],"tree_param":{"num_deleted":"0","num_feature":"184","num_nodes":"413","size_leaf_vector":"1"}},{"base_weights":[-2.8382568E-2,-2.1664727E0,5.2513443E1,-4.3667846E0,9.204419E0,3.9139248E1,1.0598945E2,-5.7638197E0,-1.0598644E0,6.3959465E0,1.7659065E1,3.270986E1,5.670653E1,9.372798E1,1.6258212E2,-6.5909667E0,-4.5556097E0,-2.1535697E0,6.393708E-1,4.6982975E0,9.780255E0,1.6569872E1,3.2115707E1,2.7466738E1,4.0646225E1,5.1035297E1,7.275493E1,7.779399E1,1.14347404E2,-3.646256E-1,1.6334015E2,-7.12712E0,-6.1012807E0,-5.009033E0,-3.8953915E0,-2.7439587E0,-1.377307E0,2.7198607E-1,2.7858324E0,4.2335606E0,9.274764E0,8.831061E0,1.43651905E1,1.4206247E1,1.9944294E1,3.134507E1,1.1210073E2,2.468801E1,3.274237E1,3.647997E1,4.746125E1,4.7798515E1,6.013942E1,7.030425E1,1.2745687E2,7.251235E1,9.4854095E1,1.0016076E2,1.2239244E2,1.6455066E2,1.0040135E2,-7.508309E0,-6.90985E0,-6.3432794E0,-5.799606E0,-5.018492E0,1.9811495E1,-3.9338887E0,3.517313E-1,-2.7636833E0,6.696783E0,-1.4113959E0,7.970136E0,2.83621E-2,2.9745123E0,2.3175745E0,6.1575074E0,4.1661353E0,3.619887E1,8.249982E0,1.6932287E1,8.05307E0,1.097023E1,1.3116383E1,2.1603931E1,1.2881688E1,1.7213343E1,1.7559475E1,2.219461E1,2.8724909E1,4.4839596E1,8.315584E-1,1.1924148E1,2.2756115E1,2.6549942E1,2.583819E1,3.421973E1,3.419409E1,4.1900085E1,4.2360123E1,5.257805E1,4.393525E1,5.2994404E1,5.0499485E1,6.3926834E1,3.477037E1,7.29E1,1.3576183E2,1.022665E1,6.7036125E1,8.0933556E1,6.060488E1,1.0059602E2,1.0077814E2,2.4187235E1,1.18487045E2,1.4792178E2,1.1884217E1,1.35842285E1,5.2240498E1,9.636712E0,-7.906134E0,-7.4082546E0,-7.0780516E0,-6.7626863E0,-6.350978E0,-2.811172E-1,-5.813082E0,-2.086009E0,-5.2915635E0,-4.7268205E0,3.1311453E1,-1.090082E0,-3.116743E0,-4.0609984E0,-2.2148522E-2,3.4008297E1,-2.8728743E0,-1.3160707E0,-1.7605535E0,1.074922E1,-1.5424875E0,5.507187E-1,6.3745365E0,3.4886248E0,-4.9145266E-1,8.6716527E-1,2.4438035E0,1.5023932E1,1.9075968E0,4.406303E0,5.53831E0,2.2812477E1,3.1224153E0,5.2735925E0,4.726723E1,1.1107949E1,7.5176096E0,1.0714854E1,1.3822711E1,2.5107735E1,7.205611E0,9.330212E0,1.0153076E1,1.2822358E1,1.2700518E1,4.4210255E1,1.4029605E1,2.620834E1,1.2126485E1,1.636055E1,1.5246426E1,1.8982405E1,1.5946374E1,2.111654E1,2.1852331E1,4.8430466E1,2.7732735E1,5.6879856E1,4.670125E1,1.2553146E1,2.692335E-1,-1.694465E-1,2.0164413E1,2.4145432E1,3.407826E1,2.590506E1,9.393741E0,2.655279E1,3.1633745E1,3.812866E1,4.7225887E1,3.3566463E1,6.3716503E1,4.13249E1,4.1306644E1,6.529805E1,4.897108E1,5.720021E1,3.9926056E1,5.070686E1,5.0375538E1,5.5485386E1,5.1842377E1,6.4997643E-1,2.7585361E1,6.506475E1,1.1963739E1,5.7078514E1,6.753013E1,8.316922E1,1.265459E0,1.3976665E2,1.0989391E0,1.2825897E-1,5.9814262E1,7.199345E1,7.656215E1,9.057948E1,6.850666E1,1.8458988E1,1.23219124E2,9.6402176E1,7.333107E-3,1.0108389E2,3.3566514E-1,2.356195E0,-3.3507082E-1,1.1874027E2,8.1354515E1,1.5383896E2,5.350549E0,-2.529993E-1,-6.518094E-1,-6.2286377E-1,-6.010728E-1,-5.840492E-1,-5.6752354E-1,-5.128953E-1,-5.4117817E-1,5.9949535E-1,-5.220012E-1,-4.986995E-1,-1.5061991E-1,1.650704E0,-4.309413E-1,-4.704246E-1,-2.2962384E-1,1.791954E0,-4.2805976E-1,-3.1584996E-1,-3.893742E-1,-3.3964282E-1,7.7840424E-1,4.4210496E0,5.3892106E-1,-4.4544184E-1,-2.8955954E-1,-1.964282E-1,-3.443814E-1,-3.0209392E-1,-5.4521874E-2,4.5796993E-1,4.4212575E0,-3.40262E-1,-1.5263449E-1,-2.4148925E-1,-1.3071755E-1,9.9906646E-2,-3.257887E-1,1.5940777E0,3.5324496E-1,1.6133167E0,-1.4960578E-1,-6.735239E-2,3.4568045E-2,1.3687398E0,6.7785764E-1,-3.0416387E-1,-5.7412934E-2,3.0241098E-2,4.174146E-2,1.4445202E-1,4.92122E-1,1.5606575E-1,1.4239504E0,1.6470474E-1,9.9091366E-2,2.291457E-1,2.7864972E-1,5.0241363E-1,3.962914E-1,1.3183157E0,4.7602212E-1,2.2727737E0,2.1190591E-1,3.3777973E-1,3.7269843E-1,5.582248E-1,4.039377E0,-1.4507136E-1,4.4833973E-1,1.7676196E0,5.9021646E-1,1.3038527E0,8.209038E-1,1.3769032E0,9.7501576E-1,1.9436772E0,1.4995997E-1,2.1126854E0,5.0583756E-1,6.632236E-1,7.3462355E-1,1.8750433E0,7.3734295E-1,9.0332997E-1,4.455902E-1,1.055396E0,9.351116E-1,1.2169594E0,5.7502866E0,1.2215575E0,1.1640186E0,-3.9731655E-1,2.007463E0,4.218401E0,8.406749E-1,1.0302249E0,1.1572461E0,1.5497056E0,1.0760412E0,1.3468646E0,1.417483E0,1.967002E0,1.264427E0,4.653684E0,1.6529565E0,2.7795787E0,1.6856958E0,2.1059015E0,2.6609566E0,7.0305734E0,4.5757824E-1,2.2902486E0,5.8702354E0,2.4569113E0,3.8408215E0,3.0800658E-1,1.9741545E0,1.902746E-1,1.6153623E-1,1.6330334E0,1.9164196E0,4.9937873E0,2.8515978E0,-5.078023E-3,2.0643659E0,5.052774E0,8.896716E-1,-4.5328486E-1,1.8123558E0,2.347081E0,2.3907585E0,2.7923067E0,2.9999878E0,5.756469E0,3.4681783E0,8.200081E0,5.577242E0,2.673776E0,5.3446674E0,1.1882521E0,3.3504584E0,9.1150534E-1,3.0794432E0,3.6699572E0,6.665794E0,4.1763787E0,2.8987033E0,4.0419855E0,4.5883536E0,8.3840656E-1,2.2454865E0,3.2836306E0,1.996962E-1,4.1307926E0,3.9875417E0,7.1492996E0,4.453946E0,1.39731E0,4.260694E0,2.1577253E0,9.9644727E-1,-4.33226E-1,3.1680017E0,3.535216E-2,5.134823E0,8.488712E0,-3.2516414E-1,1.6986951E0,3.473174E0,6.7248015E0,4.488757E0,5.5728025E0,6.07444E0,7.3856115E0,1.17756E1,6.330281E0,-3.682788E-1,4.8091483E0,2.3906273E-1,5.793126E0,6.161752E0,2.3409288E0,8.119548E0,6.497723E0,5.592338E0,8.395801E-1,3.4792204E0,-4.2062575E-1,2.5757077E0,1.0244237E1,7.7439E0,6.6759664E-1,8.406378E0,6.931356E0,8.409432E0,9.850652E0,7.167607E-1,7.2333384E0,1.239465E1,3.3524578E0],"categories":[],"categories_nodes":[],"categories_segments":[],"categories_sizes":[],"default_left":[0,0,0,0,0,0,0,0,0,0,0,0,0,0,0,0,0,0,0,0,0,0,0,0,0,0,0,0,0,0,0,0,0,0,0,0,0,0,0,0,0,0,0,0,0,0,0,0,0,0,0,0,0,0,0,0,0,0,0,0,0,0,0,0,0,0,0,0,0,0,0,0,0,0,0,0,0,0,0,0,0,0,0,0,0,0,0,0,0,0,0,0,0,0,0,0,0,0,0,0,0,0,0,0,0,0,0,0,0,0,0,0,0,0,0,0,0,0,0,0,0,0,0,0,0,0,0,0,0,0,0,0,0,0,0,0,0,0,0,0,0,0,0,0,0,0,0,0,0,0,0,0,0,0,0,0,0,0,0,0,0,0,0,0,0,0,0,0,0,0,0,0,0,0,0,0,0,0,0,0,0,0,0,0,0,0,0,0,0,0,0,0,0,0,0,0,0,0,0,0,0,0,0,0,0,0,0,0,0,0,0,0,0,0,0,0,0,0,0,0,0,0,0,0,0,0,0,0,0,0,0,0,0,0,0,0,0,0,0,0,0,0,0,0,0,0,0,0,0,0,0,0,0,0,0,0,0,0,0,0,0,0,0,0,0,0,0,0,0,0,0,0,0,0,0,0,0,0,0,0,0,0,0,0,0,0,0,0,0,0,0,0,0,0,0,0,0,0,0,0,0,0,0,0,0,0,0,0,0,0,0,0,0,0,0,0,0,0,0,0,0,0,0,0,0,0,0,0,0,0,0,0,0,0,0,0,0,0,0,0,0,0,0,0,0,0,0,0,0,0,0,0,0,0,0,0,0,0,0,0,0,0,0,0,0,0,0,0,0,0,0,0,0,0,0,0,0,0,0,0,0,0,0,0,0,0,0,0,0,0,0,0,0,0,0,0,0,0,0,0,0,0,0,0,0,0,0,0,0,0,0,0,0,0,0,0,0,0,0,0,0,0,0,0,0,0,0,0,0,0,0,0,0],"id":1,"left_children":[1,3,5,7,9,11,13,15,17,19,21,23,25,27,29,31,33,35,37,39,41,43,45,47,49,51,53,55,57,-1,59,61,63,65,67,69,71,73,75,77,79,81,83,85,87,89,91,93,95,97,99,101,103,105,107,109,111,113,115,117,119,121,123,125,127,129,131,133,135,137,139,141,143,145,147,149,151,153,155,157,159,161,163,165,167,169,171,173,175,177,179,181,-1,183,185,187,189,191,193,195,197,199,201,203,205,207,209,211,213,215,217,219,221,223,225,227,229,-1,-1,231,-1,233,235,237,239,241,243,245,247,249,251,253,255,257,259,261,263,265,267,269,271,273,275,277,-1,279,281,283,285,287,289,291,293,295,297,299,301,303,305,307,309,311,313,315,317,319,321,323,325,327,329,331,333,335,337,339,341,343,345,347,349,-1,-1,351,353,355,357,359,361,363,365,367,369,371,373,375,377,379,381,383,385,387,389,391,393,395,397,399,401,403,405,-1,407,-1,-1,409,411,413,415,417,419,421,423,-1,425,-1,-1,-1,427,429,431,-1,-1,-1,-1,-1,-1,-1,-1,-1,-1,-1,-1,-1,-1,-1,-1,-1,-1,-1,-1,-1,-1,-1,-1,-1,-1,-1,-1,-1,-1,-1,-1,-1,-1,-1,-1,-1,-1,-1,-1,-1,-1,-1,-1,-1,-1,-1,-1,-1,-1,-1,-1,-1,-1,-1,-1,-1,-1,-1,-1,-1,-1,-1,-1,-1,-1,-1,-1,-1,-1,-1,-1,-1,-1,-1,-1,-1,-1,-1,-1,-1,-1,-1,-1,-1,-1,-1,-1,-1,-1,-1,-1,-1,-1,-1,-1,-1,-1,-1,-1,-1,-1,-1,-1,-1,-1,-1,-1,-1,-1,-1,-1,-1,-1,-1,-1,-1,-1,-1,-1,-1,-1,-1,-1,-1,-1,-1,-1,-1,-1,-1,-1,-1,-1,-1,-1,-1,-1,-1,-1,-1,-1,-1,-1,-1,-1,-1,-1,-1,-1,-1,-1,-1,-1,-1,-1,-1,-1,-1,-1,-1,-1,-1,-1,-1,-1,-1,-1,-1,-1,-1,-1,-1,-1,-1,-1,-1,-1,-1,-1,-1,-1,-1,-1,-1,-1,-1,-1,-1,-1,-1,-1,-1,-1,-1,-1,-1,-1,-1,-1,-1,-1],"loss_changes":[3.6325988E7,7.7740025E6,9.038816E6,1.202734E6,1.196071E6,1.140718E6,1.73966E6,1.828755E5,1.4369767E5,2.1722675E5,1.972535E5,3.071395E5,2.42844E5,6.74812E5,5.7631E4,2.84795E4,2.224725E4,2.1555469E4,2.3876572E4,5.352775E4,5.4847375E4,9.289925E4,5.0667312E4,6.463225E4,8.1887E4,5.6208E4,8.554925E4,9.91765E4,9.1033E4,0E0,1.7535E4,4.2425E3,4.10925E3,1.0451875E4,4.9537188E3,4.9939375E3,6.4873633E3,1.7022852E4,6.9719766E3,4.913128E4,1.8073844E4,1.7333188E4,1.9287781E4,2.715775E4,2.5423625E4,2.9544062E4,3.2768234E4,9.927875E3,1.4792875E4,2.126475E4,2.684975E4,2.746025E4,1.5830125E4,5.990975E4,2.684575E4,3.62175E4,4.79845E4,1.318075E4,3.9602E4,1.1494E4,4.333047E3,6.90375E2,7.7E2,1.468625E3,1.2534375E3,3.485375E3,4.1203765E3,3.1050625E3,3.4360515E3,4.2109375E3,1.9382026E3,5.20975E3,3.929915E3,1.0342003E4,1.3635225E4,3.3201582E3,5.432217E3,2.6359469E4,1.2805297E4,3.6183125E3,6.5931953E3,8.2449375E3,4.0908125E3,2.3347688E4,1.0687781E4,1.23493125E4,7.0143125E3,1.30900625E4,2.1131375E4,1.8898625E4,7.8285938E3,2.9550158E1,0E0,4.712625E3,6.326625E3,2.9821406E3,1.1561125E4,8.99875E3,4.1305625E3,1.0907375E4,6.40175E3,2.1241625E4,1.301875E3,1.0141594E4,1.3547375E4,2.3738258E4,2.91245E4,1.0758719E4,6.87836E1,1.549175E4,7.8655E3,1.2722594E4,1.032275E4,1.01505E4,2.9745874E2,1.6091E4,1.5844625E4,0E0,0E0,4.2673906E3,0E0,4.6015625E1,1.154375E2,1.186875E2,5.64125E2,6.01125E2,1.4122661E3,6.905E2,1.8502332E3,1.7881875E3,1.4197188E3,5.1483027E3,2.828383E2,1.3361328E3,1.787125E3,1.0307958E3,2.6750876E3,3.4809531E3,1.5284307E3,1.0337112E3,2.1774863E3,4.3550273E3,2.485103E3,1.5699504E3,0E0,2.8804692E3,2.9407188E3,3.7332412E3,3.201918E3,2.0771094E3,1.080085E3,3.2510127E3,1.6241934E3,6.109047E3,1.156725E4,5.314953E3,8.4370557E2,1.824375E3,1.1994062E3,3.1286719E3,2.1869727E3,4.3716406E3,6.1488125E3,1.9640312E3,2.2080156E3,4.4614375E3,1.8120273E4,1.2788242E3,4.4731562E3,4.6399375E3,4.563578E3,2.6250938E3,7.3639062E3,8.692344E3,3.7859688E3,7.97125E3,1.5627984E4,1.383025E4,8.1079844E3,7.2194375E3,1.051512E3,0E0,0E0,2.2584375E3,5.3111875E3,6.100172E3,3.50675E3,4.0114978E2,2.1914688E3,3.3386875E3,7.894625E3,7.7610234E3,4.12575E3,8.206172E2,8.3068125E3,5.187125E3,1.0781562E3,4.4428125E3,1.09925E3,6.0548125E3,1.3964875E4,2.1120625E3,1.268625E3,3.7768125E3,4.2547415E2,4.2220527E3,6.148E3,3.8008413E3,5.1986562E3,6.2835E3,7.033E3,0E0,6.409375E1,0E0,0E0,4.742375E3,9.15875E3,3.139375E3,2.3790625E3,2.1040312E3,4.9779595E3,1.0396844E4,6.246125E3,0E0,9.88125E3,0E0,0E0,0E0,1.7037E4,4.4383867E3,1.46825E3,0E0,0E0,0E0,0E0,0E0,0E0,0E0,0E0,0E0,0E0,0E0,0E0,0E0,0E0,0E0,0E0,0E0,0E0,0E0,0E0,0E0,0E0,0E0,0E0,0E0,0E0,0E0,0E0,0E0,0E0,0E0,0E0,0E0,0E0,0E0,0E0,0E0,0E0,0E0,0E0,0E0,0E0,0E0,0E0,0E0,0E0,0E0,0E0,0E0,0E0,0E0,0E0,0E0,0E0,0E0,0E0,0E0,0E0,0E0,0E0,0E0,0E0,0E0,0E0,0E0,0E0,0E0,0E0,0E0,0E0,0E0,0E0,0E0,0E0,0E0,0E0,0E0,0E0,0E0,0E0,0E0,0E0,0E0,0E0,0E0,0E0,0E0,0E0,0E0,0E0,0E0,0E0,0E0,0E0,0E0,0E0,0E0,0E0,0E0,0E0,0E0,0E0,0E0,0E0,0E0,0E0,0E0,0E0,0E0,0E0,0E0,0E0,0E0,0E0,0E0,0E0,0E0,0E0,0E0,0E0,0E0,0E0,0E0,0E0,0E0,0E0,0E0,0E0,0E0,0E0,0E0,0E0,0E0,0E0,0E0,0E0,0E0,0E0,0E0,0E0,0E0,0E0,0E0,0E0,0E0,0E0,0E0,0E0,0E0,0E0,0E0,0E0,0E0,0E0,0E0,0E0,0E0,0E0,0E0,0E0,0E0,0E0,0E0,0E0,0E0,0E0,0E0,0E0,0E0,0E0,0E0,0E0,0E0,0E0,0E0,0E0,0E0,0E0,0E0,0E0,0E0,0E0,0E0,0E0,0E0,0E0,0E0,0E0,0E0,0E0,0E0,0E0,0E0,0E0,0E0,0E0,0E0,0E0,0E0,0E0,0E0,0E0],"parents":[2147483647,0,0,1,1,2,2,3,3,4,4,5,5,6,6,7,7,8,8,9,9,10,10,11,11,12,12,13,13,14,14,15,15,16,16,17,17,18,18,19,19,20,20,21,21,22,22,23,23,24,24,25,25,26,26,27,27,28,28,30,30,31,31,32,32,33,33,34,34,35,35,36,36,37,37,38,38,39,39,40,40,41,41,42,42,43,43,44,44,45,45,46,46,47,47,48,48,49,49,50,50,51,51,52,52,53,53,54,54,55,55,56,56,57,57,58,58,59,59,60,60,61,61,62,62,63,63,64,64,65,65,66,66,67,67,68,68,69,69,70,70,71,71,72,72,73,73,74,74,75,75,76,76,77,77,78,78,79,79,80,80,81,81,82,82,83,83,84,84,85,85,86,86,87,87,88,88,89,89,90,90,91,91,93,93,94,94,95,95,96,96,97,97,98,98,99,99,100,100,101,101,102,102,103,103,104,104,105,105,106,106,107,107,108,108,109,109,110,110,111,111,112,112,113,113,114,114,115,115,116,116,119,119,121,121,122,122,123,123,124,124,125,125,126,126,127,127,128,128,129,129,130,130,131,131,132,132,133,133,134,134,135,135,136,136,137,137,138,138,139,139,140,140,141,141,142,142,143,143,145,145,146,146,147,147,148,148,149,149,150,150,151,151,152,152,153,153,154,154,155,155,156,156,157,157,158,158,159,159,160,160,161,161,162,162,163,163,164,164,165,165,166,166,167,167,168,168,169,169,170,170,171,171,172,172,173,173,174,174,175,175,176,176,177,177,178,178,179,179,180,180,183,183,184,184,185,185,186,186,187,187,188,188,189,189,190,190,191,191,192,192,193,193,194,194,195,195,196,196,197,197,198,198,199,199,200,200,201,201,202,202,203,203,204,204,205,205,206,206,207,207,208,208,209,209,210,210,212,212,215,215,216,216,217,217,218,218,219,219,220,220,221,221,222,222,224,224,228,228,229,229,230,230],"right_children":[2,4,6,8,10,12,14,16,18,20,22,24,26,28,30,32,34,36,38,40,42,44,46,48,50,52,54,56,58,-1,60,62,64,66,68,70,72,74,76,78,80,82,84,86,88,90,92,94,96,98,100,102,104,106,108,110,112,114,116,118,120,122,124,126,128,130,132,134,136,138,140,142,144,146,148,150,152,154,156,158,160,162,164,166,168,170,172,174,176,178,180,182,-1,184,186,188,190,192,194,196,198,200,202,204,206,208,210,212,214,216,218,220,222,224,226,228,230,-1,-1,232,-1,234,236,238,240,242,244,246,248,250,252,254,256,258,260,262,264,266,268,270,272,274,276,278,-1,280,282,284,286,288,290,292,294,296,298,300,302,304,306,308,310,312,314,316,318,320,322,324,326,328,330,332,334,336,338,340,342,344,346,348,350,-1,-1,352,354,356,358,360,362,364,366,368,370,372,374,376,378,380,382,384,386,388,390,392,394,396,398,400,402,404,406,-1,408,-1,-1,410,412,414,416,418,420,422,424,-1,426,-1,-1,-1,428,430,432,-1,-1,-1,-1,-1,-1,-1,-1,-1,-1,-1,-1,-1,-1,-1,-1,-1,-1,-1,-1,-1,-1,-1,-1,-1,-1,-1,-1,-1,-1,-1,-1,-1,-1,-1,-1,-1,-1,-1,-1,-1,-1,-1,-1,-1,-1,-1,-1,-1,-1,-1,-1,-1,-1,-1,-1,-1,-1,-1,-1,-1,-1,-1,-1,-1,-1,-1,-1,-1,-1,-1,-1,-1,-1,-1,-1,-1,-1,-1,-1,-1,-1,-1,-1,-1,-1,-1,-1,-1,-1,-1,-1,-1,-1,-1,-1,-1,-1,-1,-1,-1,-1,-1,-1,-1,-1,-1,-1,-1,-1,-1,-1,-1,-1,-1,-1,-1,-1,-1,-1,-1,-1,-1,-1,-1,-1,-1,-1,-1,-1,-1,-1,-1,-1,-1,-1,-1,-1,-1,-1,-1,-1,-1,-1,-1,-1,-1,-1,-1,-1,-1,-1,-1,-1,-1,-1,-1,-1,-1,-1,-1,-1,-1,-1,-1,-1,-1,-1,-1,-1,-1,-1,-1,-1,-1,-1,-1,-1,-1,-1,-1,-1,-1,-1,-1,-1,-1,-1,-1,-1,-1,-1,-1,-1,-1,-1,-1,-1,-1,-1,-1,-1],"split_conditions":[3.5450346E0,2.4957259E0,4.4162335E0,1.8532981E0,3.1117742E0,4.1743875E0,5.3033047E0,1.4470634E0,2.196967E0,2.8449564E0,3.9702919E0,3.8434722E0,4.519307E0,4.762174E0,3.1209543E0,1.1786292E0,1.6736304E0,2.035308E0,2.8577912E0,3.295837E0,3.4011974E0,3.4339871E0,5.3033047E0,3.8501475E0,4.0682735E0,4.4998097E0,5.3033047E0,4.7543397E0,4.7049327E0,-3.646256E-1,1E0,9.879456E-1,1.3278971E0,3.583519E0,2.985884E0,3.5263605E0,3.5263605E0,2.9957323E0,3.3672957E0,4.1743875E0,3.7546906E0,3.2386785E0,3.713572E0,3.336403E0,3.336403E0,4.2195077E0,3.0910425E0,3.6888795E0,3.3322046E0,4.0943446E0,4.0943446E0,4.0682735E0,3.9449022E0,3.295837E0,1E0,4.519307E0,4.3156867E0,1.8E1,5.3033047E0,5.3033047E0,4.7049327E0,8.154253E-1,1.0859605E0,2.8345065E0,2.746822E0,1.559566E0,1E0,2E0,1E0,2.6615174E0,3E0,2.8903718E0,1E0,2.3569264E0,1E0,3.0070183E0,1E0,2.656158E0,4.95E0,3.3322046E0,3.563288E0,3.0910425E0,3.563288E0,1E0,1E0,3.4965076E0,3.4339871E0,3.5343287E0,1E0,1E0,1E0,1E0,1.1924148E1,3.6169615E0,2E0,2.6390574E0,4.0943446E0,3.0933125E0,2.3978953E0,1E0,4.9E0,4.2195077E0,4.317488E0,5.3033047E0,3.218876E0,4.82E0,4.762174E0,2E0,2E0,4.317488E0,4.7049327E0,1E0,4.2195077E0,1.8166146E0,1E0,1.0148683E0,4.750914E0,1.1884217E1,1.35842285E1,4E0,9.636712E0,7.030408E-1,9.237951E-1,1E0,3.0933125E0,1.2388577E0,1E0,2E0,1E0,1E0,1.9574151E0,1.4338933E0,4E-1,1.8955187E0,1.7667898E0,1E0,2E-1,2E0,2.7951448E0,9E0,3.8066626E0,2.3978953E0,1E0,1E0,3.4886248E0,2.7080503E0,2.7209663E0,2E0,2.3241508E0,2.4909716E0,3.1354942E0,1E0,1E0,2.8396046E0,3.0445225E0,1E0,1E0,3.8066626E0,1E0,1E0,1.4653366E0,2.944439E0,1E0,3.0365384E0,1.8166146E0,3.4011974E0,1.9764394E0,4.762174E0,1E0,3.0445225E0,3.4011974E0,3.295837E0,6E0,4.494082E0,4.060443E0,4.0073333E0,4.3156867E0,1.856298E0,2.6645162E0,1.1E1,4.35131E0,2.692335E-1,-1.694465E-1,1.7730862E0,1E0,1E0,5.3033047E0,6E0,3.0230556E0,3.8918202E0,4.750914E0,1E0,1.9574151E0,1E0,4.750914E0,4.92E0,3.5263605E0,3.8066626E0,5.3033047E0,3.6169615E0,2.7080503E0,1E0,5.3033047E0,1E0,1E-1,1E0,1E0,2.2169182E0,4.7543397E0,4.317488E0,4.7543397E0,1.265459E0,1E0,1.0989391E0,1.2825897E-1,1.189671E0,3.1209543E0,1E0,5E0,1E0,4.35131E0,4.494082E0,1E0,7.333107E-3,1E0,3.3566514E-1,2.356195E0,-3.3507082E-1,4.7543397E0,2E0,1E0,5.350549E0,-2.529993E-1,-6.518094E-1,-6.2286377E-1,-6.010728E-1,-5.840492E-1,-5.6752354E-1,-5.128953E-1,-5.4117817E-1,5.9949535E-1,-5.220012E-1,-4.986995E-1,-1.5061991E-1,1.650704E0,-4.309413E-1,-4.704246E-1,-2.2962384E-1,1.791954E0,-4.2805976E-1,-3.1584996E-1,-3.893742E-1,-3.3964282E-1,7.7840424E-1,4.4210496E0,5.3892106E-1,-4.4544184E-1,-2.8955954E-1,-1.964282E-1,-3.443814E-1,-3.0209392E-1,-5.4521874E-2,4.5796993E-1,4.4212575E0,-3.40262E-1,-1.5263449E-1,-2.4148925E-1,-1.3071755E-1,9.9906646E-2,-3.257887E-1,1.5940777E0,3.5324496E-1,1.6133167E0,-1.4960578E-1,-6.735239E-2,3.4568045E-2,1.3687398E0,6.7785764E-1,-3.0416387E-1,-5.7412934E-2,3.0241098E-2,4.174146E-2,1.4445202E-1,4.92122E-1,1.5606575E-1,1.4239504E0,1.6470474E-1,9.9091366E-2,2.291457E-1,2.7864972E-1,5.0241363E-1,3.962914E-1,1.3183157E0,4.7602212E-1,2.2727737E0,2.1190591E-1,3.3777973E-1,3.7269843E-1,5.582248E-1,4.039377E0,-1.4507136E-1,4.4833973E-1,1.7676196E0,5.9021646E-1,1.3038527E0,8.209038E-1,1.3769032E0,9.7501576E-1,1.9436772E0,1.4995997E-1,2.1126854E0,5.0583756E-1,6.632236E-1,7.3462355E-1,1.8750433E0,7.3734295E-1,9.0332997E-1,4.455902E-1,1.055396E0,9.351116E-1,1.2169594E0,5.7502866E0,1.2215575E0,1.1640186E0,-3.9731655E-1,2.007463E0,4.218401E0,8.406749E-1,1.0302249E0,1.1572461E0,1.5497056E0,1.0760412E0,1.3468646E0,1.417483E0,1.967002E0,1.264427E0,4.653684E0,1.6529565E0,2.7795787E0,1.6856958E0,2.1059015E0,2.6609566E0,7.0305734E0,4.5757824E-1,2.2902486E0,5.8702354E0,2.4569113E0,3.8408215E0,3.0800658E-1,1.9741545E0,1.902746E-1,1.6153623E-1,1.6330334E0,1.9164196E0,4.9937873E0,2.8515978E0,-5.078023E-3,2.0643659E0,5.052774E0,8.896716E-1,-4.5328486E-1,1.8123558E0,2.347081E0,2.3907585E0,2.7923067E0,2.9999878E0,5.756469E0,3.4681783E0,8.200081E0,5.577242E0,2.673776E0,5.3446674E0,1.1882521E0,3.3504584E0,9.1150534E-1,3.0794432E0,3.6699572E0,6.665794E0,4.1763787E0,2.8987033E0,4.0419855E0,4.5883536E0,8.3840656E-1,2.2454865E0,3.2836306E0,1.996962E-1,4.1307926E0,3.9875417E0,7.1492996E0,4.453946E0,1.39731E0,4.260694E0,2.1577253E0,9.9644727E-1,-4.33226E-1,3.1680017E0,3.535216E-2,5.134823E0,8.488712E0,-3.2516414E-1,1.6986951E0,3.473174E0,6.7248015E0,4.488757E0,5.5728025E0,6.07444E0,7.3856115E0,1.17756E1,6.330281E0,-3.682788E-1,4.8091483E0,2.3906273E-1,5.793126E0,6.161752E0,2.3409288E0,8.119548E0,6.497723E0,5.592338E0,8.395801E-1,3.4792204E0,-4.2062575E-1,2.5757077E0,1.0244237E1,7.7439E0,6.6759664E-1,8.406378E0,6.931356E0,8.409432E0,9.850652E0,7.167607E-1,7.2333384E0,1.239465E1,3.3524578E0],"split_indices":[9,9,9,9,9,6,7,9,9,9,6,9,7,7,4,9,9,9,6,6,6,7,6,7,9,6,6,6,9,0,19,9,9,4,4,4,4,4,6,4,6,7,7,9,9,7,7,4,4,7,7,9,9,4,179,7,4,2,6,6,9,9,9,4,4,9,93,11,162,6,11,6,140,9,93,7,142,9,3,7,7,4,7,93,21,6,4,6,33,93,69,2,0,9,11,6,7,7,6,69,3,7,6,6,4,3,7,11,2,6,9,24,7,4,10,4,4,0,0,2,0,9,9,93,7,9,91,11,138,93,4,7,1,4,9,167,1,11,7,2,4,4,41,15,0,7,7,11,6,4,6,177,21,7,4,120,19,4,177,168,4,6,93,6,4,7,7,7,40,4,4,6,11,4,4,7,4,4,7,2,7,0,0,4,66,113,4,2,4,6,4,123,4,145,4,3,7,4,7,9,4,130,4,152,1,24,62,4,6,6,6,0,139,0,0,4,4,145,11,31,7,4,150,0,169,0,0,0,6,11,158,0,0,0,0,0,0,0,0,0,0,0,0,0,0,0,0,0,0,0,0,0,0,0,0,0,0,0,0,0,0,0,0,0,0,0,0,0,0,0,0,0,0,0,0,0,0,0,0,0,0,0,0,0,0,0,0,0,0,0,0,0,0,0,0,0,0,0,0,0,0,0,0,0,0,0,0,0,0,0,0,0,0,0,0,0,0,0,0,0,0,0,0,0,0,0,0,0,0,0,0,0,0,0,0,0,0,0,0,0,0,0,0,0,0,0,0,0,0,0,0,0,0,0,0,0,0,0,0,0,0,0,0,0,0,0,0,0,0,0,0,0,0,0,0,0,0,0,0,0,0,0,0,0,0,0,0,0,0,0,0,0,0,0,0,0,0,0,0,0,0,0,0,0,0,0,0,0,0,0,0,0,0,0,0,0,0,0,0,0,0,0,0,0,0,0,0,0,0,0,0,0,0],"split_type":[0,0,0,0,0,0,0,0,0,0,0,0,0,0,0,0,0,0,0,0,0,0,0,0,0,0,0,0,0,0,0,0,0,0,0,0,0,0,0,0,0,0,0,0,0,0,0,0,0,0,0,0,0,0,0,0,0,0,0,0,0,0,0,0,0,0,0,0,0,0,0,0,0,0,0,0,0,0,0,0,0,0,0,0,0,0,0,0,0,0,0,0,0,0,0,0,0,0,0,0,0,0,0,0,0,0,0,0,0,0,0,0,0,0,0,0,0,0,0,0,0,0,0,0,0,0,0,0,0,0,0,0,0,0,0,0,0,0,0,0,0,0,0,0,0,0,0,0,0,0,0,0,0,0,0,0,0,0,0,0,0,0,0,0,0,0,0,0,0,0,0,0,0,0,0,0,0,0,0,0,0,0,0,0,0,0,0,0,0,0,0,0,0,0,0,0,0,0,0,0,0,0,0,0,0,0,0,0,0,0,0,0,0,0,0,0,0,0,0,0,0,0,0,0,0,0,0,0,0,0,0,0,0,0,0,0,0,0,0,0,0,0,0,0,0,0,0,0,0,0,0,0,0,0,0,0,0,0,0,0,0,0,0,0,0,0,0,0,0,0,0,0,0,0,0,0,0,0,0,0,0,0,0,0,0,0,0,0,0,0,0,0,0,0,0,0,0,0,0,0,0,0,0,0,0,0,0,0,0,0,0,0,0,0,0,0,0,0,0,0,0,0,0,0,0,0,0,0,0,0,0,0,0,0,0,0,0,0,0,0,0,0,0,0,0,0,0,0,0,0,0,0,0,0,0,0,0,0,0,0,0,0,0,0,0,0,0,0,0,0,0,0,0,0,0,0,0,0,0,0,0,0,0,0,0,0,0,0,0,0,0,0,0,0,0,0,0,0,0,0,0,0,0,0,0,0,0,0,0,0,0,0,0,0,0,0,0,0,0,0,0,0,0,0,0,0,0,0,0,0,0,0,0],"sum_hessian":[3.23358E5,3.10715E5,1.2643E4,2.60339E5,5.0376E4,1.0115E4,2.528E3,1.8302E5,7.7319E4,3.7816E4,1.256E4,7.407E3,2.708E3,2.08E3,4.48E2,1.0864E5,7.438E4,4.7041E4,3.0278E4,2.5185E4,1.2631E4,1.1682E4,8.78E2,4.463E3,2.944E3,2.004E3,7.04E2,1.176E3,9.04E2,2E0,4.46E2,5.1853E4,5.6787E4,4.4092E4,3.0288E4,2.6718E4,2.0323E4,2.5854E4,4.424E3,2.2865E4,2.32E3,1.0467E4,2.164E3,6.873E3,4.809E3,8.71E2,7E0,2.927E3,1.536E3,1.831E3,1.113E3,1.483E3,5.21E2,6.76E2,2.8E1,9.02E2,2.74E2,3.32E2,5.72E2,4.36E2,1E1,1.8813E4,3.304E4,3.1499E4,2.5288E4,4.4076E4,1.6E1,3.0016E4,2.72E2,2.6663E4,5.5E1,2.025E4,7.3E1,2.3717E4,2.137E3,3.886E3,5.38E2,2.2818E4,4.7E1,2.048E3,2.72E2,7.679E3,2.788E3,1.848E3,3.16E2,4.775E3,2.098E3,2.339E3,2.47E3,7.32E2,1.39E2,2E0,5E0,1.443E3,1.484E3,2.74E2,1.262E3,1.293E3,5.38E2,5.62E2,5.51E2,8.56E2,6.27E2,1.51E2,3.7E2,4.7E1,6.29E2,2.6E1,2E0,5.52E2,3.5E2,4.1E1,2.33E2,3.29E2,3E0,5.01E2,7.1E1,1.15E2,3.21E2,4E0,6E0,3.765E3,1.5048E4,1.5396E4,1.7644E4,3.1459E4,4E1,2.5196E4,9.2E1,2.2755E4,2.1321E4,1E1,6E0,4.044E3,2.5972E4,2.7E2,2E0,2.4792E4,1.871E3,1.8E1,3.7E1,1.8982E4,1.268E3,7.1E1,2E0,1.4643E4,9.074E3,2.048E3,8.9E1,3.25E3,6.36E2,5.2E2,1.8E1,1.1749E4,1.1069E4,3.2E1,1.5E1,1.582E3,4.66E2,1.99E2,7.3E1,4.62E3,3.059E3,1.939E3,8.49E2,1.825E3,2.3E1,1.21E2,1.95E2,3.927E3,8.48E2,9.98E2,1.1E3,1.613E3,7.26E2,2.44E3,3E1,7.09E2,2.3E1,1.31E2,8E0,1E0,1E0,5.09E2,9.34E2,1.13E2,1.371E3,1.2E1,2.62E2,7.65E2,4.97E2,5.6E1,1.237E3,1.1E1,5.27E2,5.4E2,2.2E1,3.16E2,2.35E2,5.42E2,3.14E2,3.16E2,3.11E2,1.47E2,4E0,1.2E1,3.58E2,2.4E1,2.3E1,4.18E2,2.11E2,1E0,2.5E1,1E0,1E0,2.3E2,3.22E2,2.47E2,1.03E2,3.4E1,7E0,3.2E1,2.01E2,1E0,3.28E2,1E0,2E0,1E0,5E2,7E0,6.4E1,3E0,1E0,1.23E3,2.535E3,7.577E3,7.471E3,1.5026E4,3.7E2,1.7642E4,2E0,1.264E4,1.8819E4,3.8E1,2E0,3.443E3,2.1753E4,9E1,2E0,2.1792E4,9.63E2,1.65E4,4.821E3,6E0,4E0,2E0,4E0,2.295E3,1.749E3,1.3987E4,1.1985E4,2.43E2,2.7E1,1E0,1E0,3.255E3,2.1537E4,1.665E3,2.06E2,1.7E1,1E0,2.3E1,1.4E1,1.2933E4,6.049E3,1.26E3,8E0,5.9E1,1.2E1,1.162E4,3.023E3,6.634E3,2.44E3,2.39E2,1.809E3,7.3E1,1.6E1,1.914E3,1.336E3,4.28E2,2.08E2,4.95E2,2.5E1,5E0,1.3E1,8.215E3,3.534E3,8.137E3,2.932E3,3E1,2E0,1.1E1,4E0,1.559E3,2.3E1,4.38E2,2.8E1,1.74E2,2.5E1,4E0,6.9E1,2.551E3,2.069E3,3.029E3,3E1,1.069E3,8.7E2,4.2E1,8.07E2,1.305E3,5.2E2,1.1E1,1.2E1,1.18E2,3E0,1.89E2,6E0,1.25E3,2.677E3,5.24E2,3.24E2,4.73E2,5.25E2,9.01E2,1.99E2,1.609E3,4E0,7.05E2,2.1E1,2.082E3,3.58E2,2.3E1,7E0,2.8E1,6.81E2,1.3E1,1E1,1.27E2,4E0,3E0,5E0,7E0,5.02E2,9.31E2,3E0,1.08E2,5E0,1.369E3,2E0,1.1E1,1E0,1.13E2,1.49E2,5.05E2,2.6E2,4.9E2,7E0,5.4E1,2E0,3E0,1.234E3,1E1,1E0,5.17E2,1E1,3.4E2,2E2,7E0,1.5E1,3.7E1,2.79E2,2.34E2,1E0,4.9E1,4.93E2,6E0,3.08E2,3.14E2,2E0,3.09E2,2E0,1.38E2,9E0,1E0,3E0,8E0,4E0,3.53E2,5E0,9E0,1.5E1,1.7E1,6E0,7E1,3.48E2,1.23E2,8.8E1,2.1E1,4E0,1E0,2.29E2,2E0,3.2E2,2.44E2,3E0,4.3E1,6E1,3.3E1,1E0,3E0,4E0,2E0,3E1,2E2,1E0,2.52E2,7.6E1,1.28E2,3.72E2,1E0,6E0,6.3E1,1E0],"tree_param":{"num_deleted":"0","num_feature":"184","num_nodes":"433","size_leaf_vector":"1"}},{"base_weights":[1.1866207E-3,-1.9026098E0,5.1718365E1,-4.033019E0,8.778277E0,4.0957767E1,1.12569374E2,-5.3440857E0,-1.0544231E0,5.8143E0,1.6841537E1,3.2016438E1,5.8459183E1,9.966461E1,1.4988716E2,-6.1666327E0,-4.382024E0,-1.9539709E0,1.0410224E0,4.9085584E0,1.1502292E1,1.5027124E1,2.602313E1,2.8811754E1,4.410933E1,5.084018E1,7.4852646E1,7.981748E1,1.1106459E2,1.2276141E2,1.23670845E1,-6.650872E0,-5.804221E0,-4.8375688E0,-3.753524E0,-2.6116543E0,-1.2107008E0,7.6520514E-1,6.7477374E0,3.6476753E0,7.483827E0,1.0279182E1,1.8257164E1,1.26388035E1,1.816329E1,2.3559221E1,4.13463E1,2.598301E1,3.456317E1,3.81021E1,5.070376E1,4.7029034E1,6.627069E1,6.8050385E1,8.989357E1,6.2140083E1,8.8769E1,1.0667635E2,1.332991E2,1.281558E2,4.386184E1,-6.967785E0,-6.4696703E0,-6.0476475E0,-5.5816116E0,-4.8814855E0,-2.5764542E0,-3.8218522E0,-8.382514E-1,-2.8468804E0,-1.5958563E0,-1.5892849E0,-5.2323803E-2,1.8752357E-1,1.9915541E0,5.3951287E0,1.6295675E1,2.7706637E0,5.6240497E0,7.055768E0,1.1154029E1,7.920131E0,1.1691569E1,1.6515326E1,3.1265106E1,1.1390448E1,1.5308776E1,1.6574677E1,2.2462828E1,2.1669024E1,2.9783842E1,3.972379E1,1.0771678E1,2.460652E1,3.1550303E1,3.1637352E1,3.854918E1,3.641818E1,5.0749672E1,4.7233658E1,6.011591E1,4.2989548E1,5.4075706E1,5.9956306E1,7.439647E1,6.181361E1,7.427125E1,4.938418E1,9.157457E1,-1.4171437E0,6.4173225E1,8.5142876E1,8.446851E0,9.526387E1,1.1366691E2,-3.6076918E-1,1.354876E2,1.3247469E2,2.9174208E1,-5.9765536E-1,5.7116623E0,-7.3730736E0,-6.884768E0,-6.471748E0,8.912806E0,-6.053035E0,1.4076252E0,-5.588382E0,5.477896E-1,-5.2306576E0,-4.707143E0,-3.2074194E0,-4.380997E-1,-4.001164E0,-3.1937582E0,-9.4863194E-1,2.8875982E1,-3.0833428E0,-2.1501138E0,-1.783091E0,1.0750779E0,-1.7570689E0,-3.7616873E-1,-3.987638E-1,2.2819362E0,-1.456871E-1,1.5038909E0,1.9419628E0,2.191578E1,4.8512797E0,1.3664217E1,1.3909734E1,4.8418427E1,2.055694E0,4.0384345E0,4.7834826E0,7.2294745E0,6.232486E0,8.90494E0,1.1021119E1,5.7011353E1,5.4589076E0,9.419828E0,1.122413E1,1.8524164E1,1.54661045E1,2.360358E1,9.802488E0,3.4944527E1,1.0063471E1,1.3076562E1,1.3945319E1,1.7886486E1,1.4839151E1,1.8189127E1,4.0190723E1,2.1989542E1,1.8137484E1,2.4124012E1,2.87875E1,6.4498634E1,4.1403194E1,1.4400526E1,2.2194742E1,2.7242363E1,3.1104973E1,6.966764E1,2.9385187E1,3.4618217E1,3.6890297E1,4.4266525E1,1.8632568E1,3.7030083E1,6.3493676E0,4.6070175E1,4.4977383E1,5.2780743E1,5.7510326E1,7.8778854E1,3.859407E1,4.6075638E1,3.391497E1,5.4787643E1,5.778722E1,7.76004E1,1.9989485E1,7.5162415E1,-7.013633E-1,6.233077E1,6.0923225E1,7.665674E1,2.192397E1,5.4422234E1,5.602801E1,9.320313E1,-5.1031655E-1,9.3567693E-1,6.537481E1,1.868778E0,7.779636E1,9.583209E1,3.1772038E-1,9.594043E1,7.7164726E0,1.1788649E2,1.361178E2,2.218078E0,4.531003E1,1.0891106E1,3.2738352E0,-2.4287936E-1,-5.900143E-1,-7.958075E-2,-5.60499E-1,-5.44237E-1,-5.201786E-1,-4.766527E-1,1.1739166E0,-3.3482584E-1,-4.5736545E-1,-4.8862475E-1,-9.379481E-2,2.0171509E0,-4.5016158E-1,-3.840922E-1,-1.2605752E-1,3.5161918E-1,-4.4601935E-1,-4.0863875E-1,-3.2979995E-1,-3.840953E-1,-2.6512927E-1,4.3865177E-1,2.7023727E-1,-7.7533826E-2,-3.7319323E-1,-3.1162405E-1,-2.630912E-1,-1.259101E-1,-8.417693E-2,1.5941418E0,2.8184137E0,6.467041E-1,-3.8754657E-1,-2.4264918E-1,-3.3763018E-1,-1.5916388E-1,-1.8086392E-1,-9.257543E-2,5.5318654E-2,9.815652E-1,-1.687725E-1,-1.01582706E-1,2.1545641E0,-3.6492873E-2,-5.912073E-2,4.2588282E-2,1.7166263E-1,1.4402046E0,-3.6073405E-2,4.655777E-2,6.706136E-2,2.0583713E-1,1.128172E-1,2.3680949E-1,-1.4574777E-1,3.6684668E0,2.5942633E-1,5.0772E-1,8.536696E-1,2.7500882E0,1.2284542E0,-2.2926694E-1,4.107747E0,9.9964404E-1,1.2421249E-1,2.2810416E-1,3.1844398E-1,1.2472116E0,3.4373254E-1,5.039794E-1,5.548779E-1,9.9625915E-1,4.2294046E-1,6.195522E-1,6.868497E-1,1.3018483E0,8.60744E-1,2.597452E0,2.536072E-1,6.587755E0,9.9081564E-1,4.0535223E-1,7.1399444E-1,1.1174976E0,1.1355909E0,8.3675086E-1,1.2280507E0,1.8280699E0,1.045239E0,1.4935185E0,2.7348785E0,1.411462E0,4.4484306E-2,1.149608E0,4.777884E0,2.567181E0,7.229713E-1,9.041806E-1,1.0306989E0,5.2512236E0,2.3387825E0,1.0931705E0,1.3578194E0,1.7948202E0,1.1713985E0,3.8501027E0,5.7598853E0,1.4498302E0,2.39141E0,5.5938373E0,1.1389091E0,1.8184912E0,2.1228193E-1,1.4892336E0,1.8410258E0,2.2593536E0,1.1762717E0,2.4609604E0,2.385554E0,6.800766E0,2.9522076E0,4.066792E0,-3.7644595E-1,1.6532223E0,5.0777073E0,1.7605667E0,2.0961096E0,2.482691E0,2.5358157E0,1.352854E0,6.2667313E0,7.067444E-1,2.2408533E0,2.7061467E0,5.8806934E0,2.7324395E0,2.962784E0,-1.5958793E-1,4.959688E0,3.3865325E0,5.5133116E-1,2.656529E0,2.887094E0,4.2734914E0,3.7569957E0,-6.9124526E-1,3.3790288E0,4.089855E0,3.8878493E0,4.939061E0,4.679235E0,1.3597472E0,6.5731745E0,8.487929E-1,2.3246448E0,3.2831442E0,3.6397073E0,5.939366E0,3.1102188E0,-1.4871682E-1,4.430628E0,2.7044237E0,3.2759075E0,4.7778454E0,7.664144E-1,6.4028325E0,-5.321663E-1,2.4869893E0,6.0446887E0,5.8807448E-2,-7.204606E-1,9.684727E-1,5.0071917E0,8.2284886E-1,5.5751214E0,4.233702E0,6.5257907E0,5.698404E0,3.2485488E-1,2.1219866E0,4.5390425E0,1.1579378E0,5.16436E0,2.4846482E0,7.5012774E0,2.3277376E0,4.417642E0,5.674758E0,5.85249E-1,-1.908297E-1,6.424999E0,4.6690197E0,-6.205352E-1,7.7547617E0,7.696549E0,1.0347723E0,3.686817E0,9.472091E0,2.858078E0,1.0930482E1,-2.9828256E-1,5.031925E0],"categories":[],"categories_nodes":[],"categories_segments":[],"categories_sizes":[],"default_left":[0,0,0,0,0,0,0,0,0,0,0,0,0,0,0,0,0,0,0,0,0,0,0,0,0,0,0,0,0,0,0,0,0,0,0,0,0,0,0,0,0,0,0,0,0,0,0,0,0,0,0,0,0,0,0,0,0,0,0,0,0,0,0,0,0,0,0,0,0,0,0,0,0,0,0,0,0,0,0,0,0,0,0,0,0,0,0,0,0,0,0,0,0,0,0,0,0,0,0,0,0,0,0,0,0,0,0,0,0,0,0,0,0,0,0,0,0,0,0,0,0,0,0,0,0,0,0,0,0,0,0,0,0,0,0,0,0,0,0,0,0,0,0,0,0,0,0,0,0,0,0,0,0,0,0,0,0,0,0,0,0,0,0,0,0,0,0,0,0,0,0,0,0,0,0,0,0,0,0,0,0,0,0,0,0,0,0,0,0,0,0,0,0,0,0,0,0,0,0,0,0,0,0,0,0,0,0,0,0,0,0,0,0,0,0,0,0,0,0,0,0,0,0,0,0,0,0,0,0,0,0,0,0,0,0,0,0,0,0,0,0,0,0,0,0,0,0,0,0,0,0,0,0,0,0,0,0,0,0,0,0,0,0,0,0,0,0,0,0,0,0,0,0,0,0,0,0,0,0,0,0,0,0,0,0,0,0,0,0,0,0,0,0,0,0,0,0,0,0,0,0,0,0,0,0,0,0,0,0,0,0,0,0,0,0,0,0,0,0,0,0,0,0,0,0,0,0,0,0,0,0,0,0,0,0,0,0,0,0,0,0,0,0,0,0,0,0,0,0,0,0,0,0,0,0,0,0,0,0,0,0,0,0,0,0,0,0,0,0,0,0,0,0,0,0,0,0,0,0,0,0,0,0,0,0,0,0,0,0,0,0,0,0,0,0,0,0,0,0,0,0,0,0,0,0,0,0,0,0,0,0,0,0,0,0,0,0,0,0,0,0,0,0,0,0,0,0,0,0,0,0,0,0],"id":2,"left_children":[1,3,5,7,9,11,13,15,17,19,21,23,25,27,29,31,33,35,37,39,41,43,45,47,49,51,53,55,57,59,-1,61,63,65,67,69,71,73,75,77,79,81,83,85,87,89,91,93,95,97,99,101,103,105,107,109,111,113,115,117,119,121,123,125,127,129,131,133,135,137,139,141,143,145,147,149,151,153,155,157,159,161,163,165,167,169,171,173,175,177,179,181,-1,183,185,187,189,191,193,195,197,199,201,203,205,207,209,211,213,215,217,219,-1,221,223,-1,225,227,229,-1,-1,231,233,235,237,239,241,243,245,247,249,251,253,255,257,259,261,263,265,267,269,271,273,275,277,279,281,283,285,287,289,291,293,295,297,299,301,303,305,307,309,311,313,315,317,319,321,323,325,327,329,331,333,335,337,339,341,343,345,347,349,351,353,355,357,359,361,363,365,367,369,371,373,-1,375,377,379,381,383,385,387,389,391,393,395,397,399,401,403,405,407,409,411,413,415,-1,-1,417,419,421,423,-1,425,-1,427,429,-1,431,-1,-1,-1,-1,-1,-1,-1,-1,-1,-1,-1,-1,-1,-1,-1,-1,-1,-1,-1,-1,-1,-1,-1,-1,-1,-1,-1,-1,-1,-1,-1,-1,-1,-1,-1,-1,-1,-1,-1,-1,-1,-1,-1,-1,-1,-1,-1,-1,-1,-1,-1,-1,-1,-1,-1,-1,-1,-1,-1,-1,-1,-1,-1,-1,-1,-1,-1,-1,-1,-1,-1,-1,-1,-1,-1,-1,-1,-1,-1,-1,-1,-1,-1,-1,-1,-1,-1,-1,-1,-1,-1,-1,-1,-1,-1,-1,-1,-1,-1,-1,-1,-1,-1,-1,-1,-1,-1,-1,-1,-1,-1,-1,-1,-1,-1,-1,-1,-1,-1,-1,-1,-1,-1,-1,-1,-1,-1,-1,-1,-1,-1,-1,-1,-1,-1,-1,-1,-1,-1,-1,-1,-1,-1,-1,-1,-1,-1,-1,-1,-1,-1,-1,-1,-1,-1,-1,-1,-1,-1,-1,-1,-1,-1,-1,-1,-1,-1,-1,-1,-1,-1,-1,-1,-1,-1,-1,-1,-1,-1,-1,-1,-1,-1,-1,-1,-1,-1,-1,-1,-1,-1,-1,-1,-1,-1,-1,-1,-1,-1,-1,-1,-1,-1,-1,-1],"loss_changes":[3.1827166E7,7.0943925E6,7.510448E6,1.01506E6,1.2389865E6,1.52449E6,8.15302E5,1.427995E5,1.4975216E5,1.9526025E5,2.3175475E5,2.49002E5,4.07997E5,2.81649E5,3.7261E4,1.703675E4,2.380075E4,2.7168297E4,3.755387E4,1.0617281E5,4.283225E4,8.694075E4,8.578675E4,8.22055E4,5.1587E4,1.294365E5,1.00697E5,6.9173E4,6.5104E4,2.4172E4,0E0,2.346E3,2.982375E3,4.776625E3,6.9614062E3,7.041672E3,1.1444141E4,1.6125827E4,1.4118156E4,3.8044312E4,1.6808625E4,1.4604375E4,1.7541875E4,2.1857375E4,3.397725E4,2.2674375E4,4.2638688E4,2.549375E4,1.8384875E4,1.32945E4,1.8096375E4,4.9225E4,1.8321E4,2.346025E4,1.74055E4,2.1024688E4,9.97475E3,4.3742E4,3.981775E4,2.392175E4,9.013699E3,4.585E2,9.04625E2,1.075625E3,1.21E3,2.85525E3,1.2412314E3,3.8347812E3,2.6578516E3,3.9381875E3,2.7759238E3,4.0025938E3,5.1999214E3,6.787982E3,7.159463E3,4.2734473E3,9.749965E3,1.3779227E4,9.071625E3,1.4603625E4,6.2040312E3,6.0573438E3,8.5974375E3,4.8781562E3,7.0016562E3,9.95475E3,7.1417812E3,1.003E4,1.04768125E4,1.27754375E4,1.4019094E4,1.2715E4,0E0,1.68965E4,9.307875E3,5.52825E3,5.0725E3,6.177125E3,7.190672E3,3.546E3,3.6875E3,1.3903E4,7.5575E3,5.274875E3,6.4155E3,1.1908875E4,6.69725E3,8.8203906E2,1.260775E4,4.6499673E2,1.16315E4,1.30405E4,0E0,1.604825E4,1.90575E4,0E0,4.91875E3,1.3633375E4,1.637957E3,0E0,0E0,2.703125E1,7.73125E1,3.765E2,3.632565E2,4.53875E2,1.2580198E3,8.56625E2,2.7653876E2,6.37125E2,1.7159375E3,6.774492E2,4.3088855E2,1.8490312E3,1.1616797E3,1.750781E3,1.1155835E2,1.5662812E3,2.0093477E3,1.5473789E3,1.5545847E3,2.9658594E3,5.235292E3,1.7742034E3,1.7400513E3,2.7432437E3,2.2223066E3,3.9329004E3,1.0312585E4,2.160748E3,3.2910527E3,3.1488477E3,3.0516602E2,3.8889258E3,3.6049062E3,3.2444219E3,3.4659922E3,9.490516E3,6.8339375E3,5.9340938E3,3.831253E3,1.6450625E3,2.1873516E3,5.7198125E3,2.0521406E3,4.5001094E3,5.0104688E3,6.2552136E2,3.6717969E3,3.1106875E3,1.9243094E4,5.5228125E3,2.6284844E3,1.09285E4,5.468375E3,8.320129E3,7.2718125E3,4.6054375E3,3.4499062E3,1.2006156E4,6.000703E3,1.0561406E4,2.6108374E3,9.7805625E3,4.361E3,5.1009375E3,2.998457E3,2.4835625E3,4.9394062E3,3.186875E3,2.6584688E3,3.706747E3,7.4681875E3,0E0,3.9205938E3,3.615625E3,1.907625E3,5.0414688E3,3.2827812E3,1.007E4,7.619875E3,4.510705E3,6.020625E3,5.08425E3,3.3739688E3,1.3894552E3,5.4585E3,5.3444946E2,4.26525E3,4.504375E2,2.165625E3,2.2103723E2,2.8889844E2,1.4015547E3,7.8435E3,0E0,0E0,4.777E3,1.1013705E2,3.1364375E3,1.2400125E4,0E0,4.594E3,0E0,6.812E3,1.6625E3,0E0,3.6846855E3,0E0,0E0,0E0,0E0,0E0,0E0,0E0,0E0,0E0,0E0,0E0,0E0,0E0,0E0,0E0,0E0,0E0,0E0,0E0,0E0,0E0,0E0,0E0,0E0,0E0,0E0,0E0,0E0,0E0,0E0,0E0,0E0,0E0,0E0,0E0,0E0,0E0,0E0,0E0,0E0,0E0,0E0,0E0,0E0,0E0,0E0,0E0,0E0,0E0,0E0,0E0,0E0,0E0,0E0,0E0,0E0,0E0,0E0,0E0,0E0,0E0,0E0,0E0,0E0,0E0,0E0,0E0,0E0,0E0,0E0,0E0,0E0,0E0,0E0,0E0,0E0,0E0,0E0,0E0,0E0,0E0,0E0,0E0,0E0,0E0,0E0,0E0,0E0,0E0,0E0,0E0,0E0,0E0,0E0,0E0,0E0,0E0,0E0,0E0,0E0,0E0,0E0,0E0,0E0,0E0,0E0,0E0,0E0,0E0,0E0,0E0,0E0,0E0,0E0,0E0,0E0,0E0,0E0,0E0,0E0,0E0,0E0,0E0,0E0,0E0,0E0,0E0,0E0,0E0,0E0,0E0,0E0,0E0,0E0,0E0,0E0,0E0,0E0,0E0,0E0,0E0,0E0,0E0,0E0,0E0,0E0,0E0,0E0,0E0,0E0,0E0,0E0,0E0,0E0,0E0,0E0,0E0,0E0,0E0,0E0,0E0,0E0,0E0,0E0,0E0,0E0,0E0,0E0,0E0,0E0,0E0,0E0,0E0,0E0,0E0,0E0,0E0,0E0,0E0,0E0,0E0,0E0,0E0,0E0,0E0,0E0,0E0,0E0,0E0,0E0,0E0,0E0,0E0,0E0,0E0,0E0,0E0,0E0,0E0,0E0,0E0,0E0,0E0,0E0,0E0],"parents":[2147483647,0,0,1,1,2,2,3,3,4,4,5,5,6,6,7,7,8,8,9,9,10,10,11,11,12,12,13,13,14,14,15,15,16,16,17,17,18,18,19,19,20,20,21,21,22,22,23,23,24,24,25,25,26,26,27,27,28,28,29,29,31,31,32,32,33,33,34,34,35,35,36,36,37,37,38,38,39,39,40,40,41,41,42,42,43,43,44,44,45,45,46,46,47,47,48,48,49,49,50,50,51,51,52,52,53,53,54,54,55,55,56,56,57,57,58,58,59,59,60,60,61,61,62,62,63,63,64,64,65,65,66,66,67,67,68,68,69,69,70,70,71,71,72,72,73,73,74,74,75,75,76,76,77,77,78,78,79,79,80,80,81,81,82,82,83,83,84,84,85,85,86,86,87,87,88,88,89,89,90,90,91,91,93,93,94,94,95,95,96,96,97,97,98,98,99,99,100,100,101,101,102,102,103,103,104,104,105,105,106,106,107,107,108,108,109,109,110,110,111,111,113,113,114,114,116,116,117,117,118,118,121,121,122,122,123,123,124,124,125,125,126,126,127,127,128,128,129,129,130,130,131,131,132,132,133,133,134,134,135,135,136,136,137,137,138,138,139,139,140,140,141,141,142,142,143,143,144,144,145,145,146,146,147,147,148,148,149,149,150,150,151,151,152,152,153,153,154,154,155,155,156,156,157,157,158,158,159,159,160,160,161,161,162,162,163,163,164,164,165,165,166,166,167,167,168,168,169,169,170,170,171,171,172,172,173,173,174,174,175,175,176,176,177,177,178,178,179,179,180,180,181,181,182,182,183,183,184,184,185,185,186,186,187,187,188,188,189,189,190,190,191,191,192,192,194,194,195,195,196,196,197,197,198,198,199,199,200,200,201,201,202,202,203,203,204,204,205,205,206,206,207,207,208,208,209,209,210,210,211,211,212,212,213,213,214,214,217,217,218,218,219,219,220,220,222,222,224,224,225,225,227,227],"right_children":[2,4,6,8,10,12,14,16,18,20,22,24,26,28,30,32,34,36,38,40,42,44,46,48,50,52,54,56,58,60,-1,62,64,66,68,70,72,74,76,78,80,82,84,86,88,90,92,94,96,98,100,102,104,106,108,110,112,114,116,118,120,122,124,126,128,130,132,134,136,138,140,142,144,146,148,150,152,154,156,158,160,162,164,166,168,170,172,174,176,178,180,182,-1,184,186,188,190,192,194,196,198,200,202,204,206,208,210,212,214,216,218,220,-1,222,224,-1,226,228,230,-1,-1,232,234,236,238,240,242,244,246,248,250,252,254,256,258,260,262,264,266,268,270,272,274,276,278,280,282,284,286,288,290,292,294,296,298,300,302,304,306,308,310,312,314,316,318,320,322,324,326,328,330,332,334,336,338,340,342,344,346,348,350,352,354,356,358,360,362,364,366,368,370,372,374,-1,376,378,380,382,384,386,388,390,392,394,396,398,400,402,404,406,408,410,412,414,416,-1,-1,418,420,422,424,-1,426,-1,428,430,-1,432,-1,-1,-1,-1,-1,-1,-1,-1,-1,-1,-1,-1,-1,-1,-1,-1,-1,-1,-1,-1,-1,-1,-1,-1,-1,-1,-1,-1,-1,-1,-1,-1,-1,-1,-1,-1,-1,-1,-1,-1,-1,-1,-1,-1,-1,-1,-1,-1,-1,-1,-1,-1,-1,-1,-1,-1,-1,-1,-1,-1,-1,-1,-1,-1,-1,-1,-1,-1,-1,-1,-1,-1,-1,-1,-1,-1,-1,-1,-1,-1,-1,-1,-1,-1,-1,-1,-1,-1,-1,-1,-1,-1,-1,-1,-1,-1,-1,-1,-1,-1,-1,-1,-1,-1,-1,-1,-1,-1,-1,-1,-1,-1,-1,-1,-1,-1,-1,-1,-1,-1,-1,-1,-1,-1,-1,-1,-1,-1,-1,-1,-1,-1,-1,-1,-1,-1,-1,-1,-1,-1,-1,-1,-1,-1,-1,-1,-1,-1,-1,-1,-1,-1,-1,-1,-1,-1,-1,-1,-1,-1,-1,-1,-1,-1,-1,-1,-1,-1,-1,-1,-1,-1,-1,-1,-1,-1,-1,-1,-1,-1,-1,-1,-1,-1,-1,-1,-1,-1,-1,-1,-1,-1,-1,-1,-1,-1,-1,-1,-1,-1,-1,-1,-1,-1,-1],"split_conditions":[3.6374056E0,2.5157888E0,4.7648373E0,1.8373063E0,3.1117742E0,4.1743875E0,5.3033047E0,1.3939008E0,2.2613592E0,3.3060439E0,3.7612002E0,4.083463E0,4.4162335E0,4.762174E0,4.750914E0,1.1275016E0,1.6326517E0,2.0437007E0,3.1669085E0,2.852596E0,3.583519E0,3.336403E0,4.2195077E0,3.9227452E0,4.0943446E0,4.5108595E0,4.7543397E0,4.4316096E0,5.3033047E0,7E0,1.23670845E1,9.575259E-1,1.2573861E0,1.9256037E0,2.1435695E0,2.3094614E0,2.5649493E0,2.466268E0,3.5343287E0,2.8577912E0,3.4339871E0,2.8751373E0,3.9227452E0,3.4339871E0,3.6888795E0,3.9702919E0,5.3033047E0,3.9827983E0,3.9827983E0,4.4316096E0,4.4316096E0,4.35131E0,4.519307E0,4.519307E0,4.060443E0,2.1162555E0,1E0,4.7049327E0,2.9957323E0,1E0,4.1743875E0,7.800326E-1,3.4886587E0,2.8345065E0,2.0060933E0,1.4257784E0,2.1026785E0,2.1007137E0,1E0,2.0448225E0,2.9214396E0,2.5718486E0,2.8111482E0,2.6862135E0,3.3821483E0,3.6992505E0,3.6362696E0,2.7209663E0,3.0445225E0,3.0469675E0,4.762174E0,2.7725887E0,3.713572E0,1E0,2E0,3.2391021E0,3.4179235E0,3.4339871E0,1.3962446E0,3.5263605E0,1E1,1E0,1.0771678E1,3.7866461E0,1E0,3.8673956E0,4.3307333E0,3.4886587E0,3.8434722E0,4.3307333E0,4.762174E0,3.9655795E0,3.295837E0,1E0,2.985884E0,3.1209543E0,4.4316096E0,4.2282124E0,4.0943446E0,4.34E0,1E0,4.7543397E0,8.446851E0,3.6849604E0,4.7543397E0,-3.6076918E-1,1E0,3.1209543E0,8.11E0,-5.9765536E-1,5.7116623E0,1.163981E0,8.8281643E-1,1.2850236E0,2.6E0,2E0,1E0,1.6183603E0,2.1329129E0,1.2461759E0,2E0,1E0,1.88E0,1.4897395E0,2.5718486E0,3.1396163E0,3.32E0,1.4327484E0,1.645842E0,2.2568552E0,3.637586E0,2.1237729E0,1.57E0,2.4978228E0,3.8918202E0,2.5718486E0,2.6615174E0,2.9052603E0,2.4108114E0,2.7951448E0,1E0,1E0,1E0,2.6766045E0,1E0,3.2334886E0,3.6888795E0,2.944439E0,3.3612015E0,3.9702919E0,4.3E0,1.3594369E0,1E0,2E0,3.2334886E0,3.4011974E0,2.95E0,2.985884E0,2.656158E0,3.1354942E0,1E0,1.5201695E0,3.9227452E0,1E0,3.750059E-1,1E0,2.8332133E0,2.8979518E0,4.0775375E0,2.6804733E0,4.1743875E0,4.3307333E0,3.0230556E0,1.6415178E0,3.9449022E0,1E0,3.7546906E0,3.9702919E0,1.9856801E0,1E0,2.31E0,4.0682735E0,4.5108595E0,6.3493676E0,1E0,4.45E0,4.519307E0,1E0,1E0,3.6109178E0,1E0,1E0,1E0,3.8673956E0,1E0,2.83E0,1E0,4.34E0,1.2E1,3E0,5E0,2.42E0,1E0,6E0,1E0,-5.1031655E-1,9.3567693E-1,4.317488E0,7.53E0,1E0,2.992533E0,3.1772038E-1,1E0,7.7164726E0,3.6888795E0,1.88E0,2.218078E0,2.91E0,1.0891106E1,3.2738352E0,-2.4287936E-1,-5.900143E-1,-7.958075E-2,-5.60499E-1,-5.44237E-1,-5.201786E-1,-4.766527E-1,1.1739166E0,-3.3482584E-1,-4.5736545E-1,-4.8862475E-1,-9.379481E-2,2.0171509E0,-4.5016158E-1,-3.840922E-1,-1.2605752E-1,3.5161918E-1,-4.4601935E-1,-4.0863875E-1,-3.2979995E-1,-3.840953E-1,-2.6512927E-1,4.3865177E-1,2.7023727E-1,-7.7533826E-2,-3.7319323E-1,-3.1162405E-1,-2.630912E-1,-1.259101E-1,-8.417693E-2,1.5941418E0,2.8184137E0,6.467041E-1,-3.8754657E-1,-2.4264918E-1,-3.3763018E-1,-1.5916388E-1,-1.8086392E-1,-9.257543E-2,5.5318654E-2,9.815652E-1,-1.687725E-1,-1.01582706E-1,2.1545641E0,-3.6492873E-2,-5.912073E-2,4.2588282E-2,1.7166263E-1,1.4402046E0,-3.6073405E-2,4.655777E-2,6.706136E-2,2.0583713E-1,1.128172E-1,2.3680949E-1,-1.4574777E-1,3.6684668E0,2.5942633E-1,5.0772E-1,8.536696E-1,2.7500882E0,1.2284542E0,-2.2926694E-1,4.107747E0,9.9964404E-1,1.2421249E-1,2.2810416E-1,3.1844398E-1,1.2472116E0,3.4373254E-1,5.039794E-1,5.548779E-1,9.9625915E-1,4.2294046E-1,6.195522E-1,6.868497E-1,1.3018483E0,8.60744E-1,2.597452E0,2.536072E-1,6.587755E0,9.9081564E-1,4.0535223E-1,7.1399444E-1,1.1174976E0,1.1355909E0,8.3675086E-1,1.2280507E0,1.8280699E0,1.045239E0,1.4935185E0,2.7348785E0,1.411462E0,4.4484306E-2,1.149608E0,4.777884E0,2.567181E0,7.229713E-1,9.041806E-1,1.0306989E0,5.2512236E0,2.3387825E0,1.0931705E0,1.3578194E0,1.7948202E0,1.1713985E0,3.8501027E0,5.7598853E0,1.4498302E0,2.39141E0,5.5938373E0,1.1389091E0,1.8184912E0,2.1228193E-1,1.4892336E0,1.8410258E0,2.2593536E0,1.1762717E0,2.4609604E0,2.385554E0,6.800766E0,2.9522076E0,4.066792E0,-3.7644595E-1,1.6532223E0,5.0777073E0,1.7605667E0,2.0961096E0,2.482691E0,2.5358157E0,1.352854E0,6.2667313E0,7.067444E-1,2.2408533E0,2.7061467E0,5.8806934E0,2.7324395E0,2.962784E0,-1.5958793E-1,4.959688E0,3.3865325E0,5.5133116E-1,2.656529E0,2.887094E0,4.2734914E0,3.7569957E0,-6.9124526E-1,3.3790288E0,4.089855E0,3.8878493E0,4.939061E0,4.679235E0,1.3597472E0,6.5731745E0,8.487929E-1,2.3246448E0,3.2831442E0,3.6397073E0,5.939366E0,3.1102188E0,-1.4871682E-1,4.430628E0,2.7044237E0,3.2759075E0,4.7778454E0,7.664144E-1,6.4028325E0,-5.321663E-1,2.4869893E0,6.0446887E0,5.8807448E-2,-7.204606E-1,9.684727E-1,5.0071917E0,8.2284886E-1,5.5751214E0,4.233702E0,6.5257907E0,5.698404E0,3.2485488E-1,2.1219866E0,4.5390425E0,1.1579378E0,5.16436E0,2.4846482E0,7.5012774E0,2.3277376E0,4.417642E0,5.674758E0,5.85249E-1,-1.908297E-1,6.424999E0,4.6690197E0,-6.205352E-1,7.7547617E0,7.696549E0,1.0347723E0,3.686817E0,9.472091E0,2.858078E0,1.0930482E1,-2.9828256E-1,5.031925E0],"split_indices":[8,8,5,9,9,6,6,9,9,5,5,8,9,7,4,9,9,8,5,8,6,9,7,7,7,5,6,8,5,11,0,9,9,8,8,5,5,9,6,6,7,8,7,7,6,6,7,5,5,8,8,7,7,7,4,4,33,9,4,19,4,9,4,4,8,8,8,5,127,9,6,6,6,5,9,5,4,7,7,8,7,7,7,168,11,8,5,7,5,7,2,135,0,8,130,8,5,4,9,5,7,8,4,168,4,4,8,8,7,0,146,6,0,9,6,0,126,4,0,0,0,8,9,8,0,11,133,8,8,8,11,69,0,8,6,6,0,8,8,7,6,9,0,7,6,6,6,7,4,7,18,24,24,8,130,6,6,6,8,6,0,6,168,11,6,7,0,4,9,7,66,5,7,66,5,33,4,8,5,4,6,5,4,5,9,24,6,6,5,114,0,9,5,0,142,0,7,177,127,7,150,18,69,8,10,0,127,0,2,2,11,0,36,2,31,0,0,6,0,69,9,0,131,0,4,0,0,0,0,0,0,0,0,0,0,0,0,0,0,0,0,0,0,0,0,0,0,0,0,0,0,0,0,0,0,0,0,0,0,0,0,0,0,0,0,0,0,0,0,0,0,0,0,0,0,0,0,0,0,0,0,0,0,0,0,0,0,0,0,0,0,0,0,0,0,0,0,0,0,0,0,0,0,0,0,0,0,0,0,0,0,0,0,0,0,0,0,0,0,0,0,0,0,0,0,0,0,0,0,0,0,0,0,0,0,0,0,0,0,0,0,0,0,0,0,0,0,0,0,0,0,0,0,0,0,0,0,0,0,0,0,0,0,0,0,0,0,0,0,0,0,0,0,0,0,0,0,0,0,0,0,0,0,0,0,0,0,0,0,0,0,0,0,0,0,0,0,0,0,0,0,0,0,0,0,0,0,0,0,0,0,0,0,0,0,0,0,0,0,0,0,0,0,0,0,0,0,0,0,0,0,0,0],"split_type":[0,0,0,0,0,0,0,0,0,0,0,0,0,0,0,0,0,0,0,0,0,0,0,0,0,0,0,0,0,0,0,0,0,0,0,0,0,0,0,0,0,0,0,0,0,0,0,0,0,0,0,0,0,0,0,0,0,0,0,0,0,0,0,0,0,0,0,0,0,0,0,0,0,0,0,0,0,0,0,0,0,0,0,0,0,0,0,0,0,0,0,0,0,0,0,0,0,0,0,0,0,0,0,0,0,0,0,0,0,0,0,0,0,0,0,0,0,0,0,0,0,0,0,0,0,0,0,0,0,0,0,0,0,0,0,0,0,0,0,0,0,0,0,0,0,0,0,0,0,0,0,0,0,0,0,0,0,0,0,0,0,0,0,0,0,0,0,0,0,0,0,0,0,0,0,0,0,0,0,0,0,0,0,0,0,0,0,0,0,0,0,0,0,0,0,0,0,0,0,0,0,0,0,0,0,0,0,0,0,0,0,0,0,0,0,0,0,0,0,0,0,0,0,0,0,0,0,0,0,0,0,0,0,0,0,0,0,0,0,0,0,0,0,0,0,0,0,0,0,0,0,0,0,0,0,0,0,0,0,0,0,0,0,0,0,0,0,0,0,0,0,0,0,0,0,0,0,0,0,0,0,0,0,0,0,0,0,0,0,0,0,0,0,0,0,0,0,0,0,0,0,0,0,0,0,0,0,0,0,0,0,0,0,0,0,0,0,0,0,0,0,0,0,0,0,0,0,0,0,0,0,0,0,0,0,0,0,0,0,0,0,0,0,0,0,0,0,0,0,0,0,0,0,0,0,0,0,0,0,0,0,0,0,0,0,0,0,0,0,0,0,0,0,0,0,0,0,0,0,0,0,0,0,0,0,0,0,0,0,0,0,0,0,0,0,0,0,0,0,0,0,0,0,0,0,0,0,0,0,0,0,0,0,0,0,0,0,0,0,0,0,0,0,0,0,0,0,0,0,0,0,0,0],"sum_hessian":[3.23251E5,3.11775E5,1.1476E4,2.5993E5,5.1845E4,9.753E3,1.723E3,1.80486E5,7.9444E4,3.7911E4,1.3934E4,6.457E3,3.296E3,1.283E3,4.4E2,9.7295E4,8.3191E4,5.5583E4,2.3861E4,3.2705E4,5.206E3,1.1637E4,2.297E3,5.107E3,1.35E3,2.253E3,1.043E3,4.71E2,8.12E2,6.9E1,3.71E2,4.164E4,5.5655E4,4.8228E4,3.4963E4,2.9488E4,2.6095E4,2.2762E4,1.099E3,2.1957E4,1.0748E4,4.41E3,7.96E2,6.609E3,5.028E3,1.981E3,3.16E2,3.427E3,1.68E3,7.1E2,6.4E2,1.81E3,4.43E2,7.22E2,3.21E2,1.61E2,3.1E2,6.83E2,1.29E2,6.4E1,5E0,1.5134E4,2.6506E4,2.6572E4,2.9083E4,4.7308E4,9.2E2,3.4162E4,8.01E2,2.3942E4,5.546E3,1.9667E4,6.428E3,1.5474E4,7.288E3,9.64E2,1.35E2,1.521E4,6.747E3,9.628E3,1.12E3,1.654E3,2.756E3,7.04E2,9.2E1,4.507E3,2.102E3,3.675E3,1.353E3,1.523E3,4.58E2,3.12E2,4E0,2.752E3,6.75E2,9.74E2,7.06E2,6.3E2,8E1,4.72E2,1.68E2,1.155E3,6.55E2,2.54E2,1.89E2,3.66E2,3.56E2,1.4E1,3.07E2,5E0,1.56E2,2.6E2,5E1,2.65E2,4.18E2,2E0,1.27E2,6.1E1,3E0,2E0,3E0,2.558E3,1.2576E4,2.6503E4,3E0,2.6553E4,1.9E1,2.9051E4,3.2E1,1.5745E4,3.1563E4,7.1E2,2.1E2,2.6571E4,7.591E3,7.99E2,2E0,1.7873E4,6.069E3,5.183E3,3.63E2,1.7277E4,2.39E3,5.598E3,8.3E2,1.2349E4,3.125E3,7.271E3,1.7E1,9.06E2,5.8E1,1.27E2,8E0,9.727E3,5.483E3,4.431E3,2.316E3,6.665E3,2.963E3,1.118E3,2E0,6.28E2,1.026E3,2.582E3,1.74E2,6.16E2,8.8E1,1.4E1,7.8E1,2.526E3,1.981E3,1.379E3,7.23E2,1.776E3,1.899E3,3.3E1,1.32E3,6.28E2,8.95E2,4.47E2,1.1E1,2.92E2,2E1,1.442E3,1.31E3,6.69E2,6E0,5.61E2,4.13E2,5.53E2,1.53E2,2.2E1,6.08E2,9E0,7.1E1,3.42E2,1.3E2,1.51E2,1.7E1,4.82E2,6.73E2,2.4E1,6.31E2,2.3E2,2.4E1,3E0,1.86E2,3E0,3.63E2,5.8E1,2.98E2,3E0,1.1E1,1.5E1,2.92E2,4E0,1E0,1.53E2,3E0,1.59E2,1.01E2,2E0,2.63E2,8.7E1,3.31E2,1.26E2,1E0,3E0,5.8E1,2E0,1E0,2.557E3,1E0,5.027E3,7.549E3,2.5007E4,1.496E3,2E0,1E0,3.737E3,2.2816E4,1.8E1,1E0,2.7686E4,1.365E3,2.1E1,1.1E1,4.122E3,1.1623E4,4.38E3,2.7183E4,7.02E2,8E0,2.5E1,1.85E2,3.649E3,2.2922E4,7.17E3,4.21E2,7.96E2,3E0,1E0,1E0,4.93E2,1.738E4,4.35E2,5.634E3,2.938E3,2.245E3,3.52E2,1.1E1,1.0022E4,7.255E3,6E0,2.384E3,4.1E3,1.498E3,8.24E2,6E0,8.7E3,3.649E3,1.927E3,1.198E3,4.778E3,2.493E3,9E0,8E0,4.38E2,4.68E2,5.2E1,6E0,1.17E2,1E1,7E0,1E0,5.961E3,3.766E3,5.457E3,2.6E1,3.357E3,1.074E3,2.195E3,1.21E2,4.103E3,2.562E3,2.842E3,1.21E2,1.106E3,1.2E1,1E0,1E0,3.2E1,5.96E2,9.28E2,9.8E1,5.25E2,2.057E3,1.03E2,7.1E1,3.55E2,2.61E2,3E1,5.8E1,5E0,9E0,6E0,7.2E1,1.386E3,1.14E3,1.975E3,6E0,2.3E1,1.356E3,6.06E2,1.17E2,1.767E3,9E0,1E0,1.898E3,2.6E1,7E0,1.17E2,1.203E3,1.9E1,6.09E2,7.1E2,1.85E2,5.6E1,3.91E2,5E0,6E0,2.01E2,9.1E1,5E0,1.5E1,5E0,1.437E3,1.034E3,2.76E2,6.41E2,2.8E1,5E0,1E0,4.34E2,1.27E2,3E0,4.1E2,5.51E2,2E0,1.2E1,1.41E2,1.3E1,9E0,5.78E2,3E1,7E1,1E0,2.42E2,1E2,9.3E1,3.7E1,1.47E2,4E0,1.6E1,1E0,1.01E2,3.81E2,6.62E2,1.1E1,2.1E1,3E0,6.12E2,1.9E1,2.6E1,2.04E2,1E0,2.3E1,1E0,2E0,1.85E2,1E0,2E0,1E0,3.61E2,2E0,2.4E1,3.4E1,1.49E2,1.49E2,1E0,2E0,1E1,1E0,1E1,5E0,2.89E2,3E0,5.8E1,9.5E1,1E0,2E0,1.38E2,2.1E1,1E0,1E2,2.62E2,1E0,3E0,3.28E2,1E0,1.25E2,1E0,2E0],"tree_param":{"num_deleted":"0","num_feature":"184","num_nodes":"433","size_leaf_vector":"1"}},{"base_weights":[-1.7923443E-2,-1.7360833E0,4.723397E1,-3.5916407E0,8.765247E0,3.7533886E1,1.0340811E2,-4.8149657E0,-5.308892E-1,5.8882895E0,1.5559335E1,2.9048498E1,5.2626648E1,9.062634E1,1.368327E2,-5.539497E0,-3.7251942E0,-1.4936998E0,1.1310225E0,4.996091E0,1.1630212E1,1.3591627E1,2.4788666E1,2.634249E1,4.2135025E1,4.5386658E1,6.737707E1,7.827086E1,1.0442943E2,1.3822148E2,8.641772E1,-6.0439324E0,-5.1366153E0,-4.1411767E0,-3.1457975E0,-1.8635204E0,7.6289274E-2,7.911475E-1,5.7854524E0,3.8457606E0,7.1250772E0,9.977076E0,1.716174E1,1.1998671E1,1.7033373E1,2.2969034E1,4.1907017E1,2.4456184E1,3.3331757E1,3.3856297E1,4.5913666E1,4.0994205E1,5.365331E1,6.213598E1,8.5405266E1,6.8753105E1,8.991101E1,8.7220276E1,1.0932685E2,1.231712E2,1.435084E2,9.3006775E1,-2.3316418E-1,-6.298734E0,-5.812308E0,-5.377481E0,-4.874902E0,-4.2538695E0,-3.4680219E0,-3.3251052E0,-2.119577E0,-2.2706242E0,-1.2309617E0,-7.6488415E-3,1.2997198E1,3.9791855E-1,1.9450727E0,5.3694572E0,3.7905365E1,3.3012078E0,5.6098695E0,6.319196E0,8.755421E0,8.977314E0,1.3622411E1,1.5662872E1,2.9133272E1,1.0656672E1,1.4554108E1,1.5058953E1,1.9274504E1,2.1576889E1,3.1682583E1,3.935925E1,1.0572981E1,2.0552732E1,2.6392363E1,3.001362E1,3.698529E1,8.993048E0,3.4281105E1,4.1323193E1,5.340691E1,3.628898E1,4.453687E1,5.045451E1,6.1102306E1,5.6387703E1,6.866823E1,7.863848E0,7.9275795E1,6.1671837E1,7.7130714E1,9.087377E1,1.7629248E1,6.6340294E1,9.038478E1,1.0538022E2,1.2498495E2,1.24103874E2,3.7539673E-1,1.1516418E1,7.1773224E1,7.843134E0,1.1034205E0,-6.705354E0,-6.223243E0,-5.8135877E0,7.4197783E0,-5.4070325E0,-4.6915936E0,-4.421263E0,-4.947019E0,-4.299436E0,-3.1431634E0,-2.667539E0,-3.6568532E0,-2.6029985E0,-3.4249594E0,-2.3765411E0,-7.6100737E-1,-1.373405E0,-2.3946836E0,-3.7491235E-1,-1.3363426E0,-4.7579283E-1,1.4921051E0,9.309342E0,4.077134E0,-4.767302E-2,1.1464324E0,1.6744908E0,4.7514515E0,4.7253995E0,1.0539623E1,4.1898796E1,-3.2119521E-1,3.2755272E0,3.0952236E1,4.877093E0,7.145391E0,5.81081E0,7.828518E0,7.4832654E0,9.67472E0,7.2162566E0,1.0190156E1,1.20243225E1,1.7124659E1,1.4415466E1,3.4701534E1,5.216246E0,2.719362E1,9.832969E0,1.3094846E1,1.4494659E1,6.322605E1,1.374716E1,1.7580065E1,1.7635921E1,2.4171806E1,1.9500834E1,2.5479643E1,3.286002E1,1.5919887E1,3.2343567E1,4.9642994E1,2.0234352E1,4.5773346E1,2.5649576E1,3.2300926E1,3.0704264E1,1.029881E1,3.6614433E1,4.982571E0,2.049439E1,-4.7565565E0,3.1879955E1,4.1506523E1,4.1592293E1,1.4298321E1,5.6134727E1,4.048568E1,3.5408916E1,5.5707855E1,4.2532757E1,5.2706646E1,4.6155018E1,5.334563E1,6.1740303E1,3.1228304E1,5.208347E1,6.1653202E1,6.441878E1,7.780257E1,7.293276E1,8.597136E1,5.877764E1,9.3255486E1,9.8102936E1,7.1739136E1,8.7514336E1,1.1822315E2,-4.2563716E-1,2.7762036E0,7.034525E1,-5.5035466E-1,7.260237E0,1.9953533E0,1.0606773E2,5.5852085E1,1.3027399E2,7.168976E0,1.2596111E2,5.5452206E1,8.57054E0,-1.3720948E0,-5.525853E-1,-5.277685E-1,-5.058139E-1,-4.8989984E-1,-4.733214E-1,-4.5593417E-1,-2.9406065E-1,1.184434E0,-4.0493068E-1,-4.3704394E-1,-3.874748E-1,7.212111E-2,-3.5858366E-1,-2.388195E-1,-3.9823362E-1,-3.3086646E-1,-3.6485893E-1,-3.2894522E-1,-2.5515667E-1,2.6970747E-1,-2.315298E-1,-8.944751E-2,-3.0907315E-1,-2.4822047E-1,-2.1485998E-1,9.784106E-2,-3.0156967E-1,-2.602802E-1,-1.2913829E-1,-2.0592546E-1,-7.279314E-2,8.2792735E-1,-1.2142543E-1,4.9484515E-1,-1.945925E-1,-9.406324E-3,-1.6544743E-2,-3.8990605E-1,-1.22156635E-1,-7.143323E-2,-1.1328221E-1,-7.653953E-3,9.502378E-2,5.021069E-1,5.535546E-1,3.0440664E0,-2.1336228E-2,4.8529487E-2,8.779403E-2,4.7354552E-1,2.5291127E-1,1.0721505E-1,3.487041E-1,8.2998604E-1,3.5879397E-1,8.8570553E-1,6.9211197E-1,1.3006283E0,4.187497E0,1.3661778E0,2.3384078E-1,3.7685043E-1,4.198856E0,3.99762E-1,3.6428055E-1,5.5905634E-1,5.6818855E-1,2.706056E0,4.4122738E-1,5.84381E-1,5.7407117E-1,7.917664E-1,5.789928E-1,8.698632E-1,7.200396E-1,9.2066056E-1,6.706925E-1,4.3864685E-1,7.865799E-1,1.2508233E0,9.3071896E-1,2.5829477E0,9.7934544E-1,1.6102307E0,1.1384108E0,4.0118566E0,2.408829E0,4.9505897E0,2.4153528E0,1.1280541E0,2.166488E0,7.748942E-1,9.39018E-1,1.1932702E0,1.0502294E0,1.297321E0,5.062241E-1,7.080902E0,1.0886796E0,5.451465E0,1.377623E0,2.4123206E0,4.757672E0,1.4018852E0,3.2504344E0,1.8568765E0,1.3320696E0,1.6784134E0,1.8498739E0,2.1646097E0,2.7704132E0,2.010354E0,1.3605164E0,-3.19386E-1,2.4525628E0,4.781371E0,4.129821E0,1.0394014E0,1.5203717E0,1.840167E0,8.493558E0,1.8935118E0,1.9194714E0,2.2892063E0,3.998595E-1,2.619983E0,4.95911E0,2.4200215E0,1.1961422E0,-3.0604574E-1,2.6850243E0,3.0930016E0,1.8804901E0,4.5836738E-1,-1.12544246E-1,-5.922326E-1,2.6758873E0,1.9613124E0,3.153104E0,6.510731E0,3.4280953E0,2.7879937E0,1.4961535E0,-3.0878678E-1,4.5871043E0,1.7013764E0,8.2964826E-1,3.5416455E0,2.6721063E0,3.0855277E0,-8.128555E-2,4.63429E0,3.223654E0,3.845937E0,3.9133093E0,6.0371647E0,3.611804E0,6.193425E0,3.9763553E0,4.762973E0,4.9566975E0,4.5147383E-1,3.6511462E0,1.3068823E0,4.208648E0,1.1005121E0,5.005881E0,1.5947156E0,5.1711264E0,5.6455154E-2,4.190717E0,6.42106E0,5.867057E0,1.3441584E0,7.1327415E0,4.3536997E0,3.7977378E0,5.0556593E0,8.684572E0,-3.3095455E-1,8.075708E0,6.257532E-1,5.9061418E0,2.8189647E0,2.7503836E-1,7.0532303E0,9.83291E0,-3.3435187E-1,6.392906E0,2.0531795E0,7.2474566E0,8.725924E0,8.6926574E-1,4.923106E0,1.054709E1,4.1107473E0,1.0123909E1,2.2877877E0,8.241145E0,-8.475176E-1],"categories":[],"categories_nodes":[],"categories_segments":[],"categories_sizes":[],"default_left":[0,0,0,0,0,0,0,0,0,0,0,0,0,0,0,0,0,0,0,0,0,0,0,0,0,0,0,0,0,0,0,0,0,0,0,0,0,0,0,0,0,0,0,0,0,0,0,0,0,0,0,0,0,0,0,0,0,0,0,0,0,0,0,0,0,0,0,0,0,0,0,0,0,0,0,0,0,0,0,0,0,0,0,0,0,0,0,0,0,0,0,0,0,0,0,0,0,0,0,0,0,0,0,0,0,0,0,0,0,0,0,0,0,0,0,0,0,0,0,0,0,0,0,0,0,0,0,0,0,0,0,0,0,0,0,0,0,0,0,0,0,0,0,0,0,0,0,0,0,0,0,0,0,0,0,0,0,0,0,0,0,0,0,0,0,0,0,0,0,0,0,0,0,0,0,0,0,0,0,0,0,0,0,0,0,0,0,0,0,0,0,0,0,0,0,0,0,0,0,0,0,0,0,0,0,0,0,0,0,0,0,0,0,0,0,0,0,0,0,0,0,0,0,0,0,0,0,0,0,0,0,0,0,0,0,0,0,0,0,0,0,0,0,0,0,0,0,0,0,0,0,0,0,0,0,0,0,0,0,0,0,0,0,0,0,0,0,0,0,0,0,0,0,0,0,0,0,0,0,0,0,0,0,0,0,0,0,0,0,0,0,0,0,0,0,0,0,0,0,0,0,0,0,0,0,0,0,0,0,0,0,0,0,0,0,0,0,0,0,0,0,0,0,0,0,0,0,0,0,0,0,0,0,0,0,0,0,0,0,0,0,0,0,0,0,0,0,0,0,0,0,0,0,0,0,0,0,0,0,0,0,0,0,0,0,0,0,0,0,0,0,0,0,0,0,0,0,0,0,0,0,0,0,0,0,0,0,0,0,0,0,0,0,0,0,0,0,0,0,0,0,0,0,0,0,0,0,0,0,0,0,0,0,0,0,0,0,0,0,0,0,0,0,0,0,0,0,0,0,0,0,0,0,0,0,0,0],"id":3,"left_children":[1,3,5,7,9,11,13,15,17,19,21,23,25,27,29,31,33,35,37,39,41,43,45,47,49,51,53,55,57,59,61,63,65,67,69,71,73,75,77,79,81,83,85,87,89,91,93,95,97,99,101,103,105,107,109,111,113,115,117,119,121,123,-1,125,127,129,131,133,135,137,139,141,143,145,147,149,151,153,155,157,159,161,163,165,167,169,171,173,175,177,179,181,183,185,-1,187,189,191,193,195,197,199,201,203,205,207,209,211,213,-1,215,217,219,221,223,225,227,229,231,233,-1,-1,235,-1,-1,237,239,241,243,245,247,249,251,253,255,257,259,261,263,265,267,269,271,273,275,277,279,281,-1,283,285,287,289,291,293,295,-1,297,299,301,303,305,307,309,311,313,315,317,319,321,323,-1,325,327,329,331,333,335,337,339,341,343,345,347,349,351,353,355,357,359,361,363,365,367,-1,369,371,373,375,377,379,381,383,385,387,389,391,393,395,397,399,401,403,405,407,409,411,413,415,417,419,421,423,-1,-1,425,-1,-1,-1,427,429,431,-1,433,435,-1,-1,-1,-1,-1,-1,-1,-1,-1,-1,-1,-1,-1,-1,-1,-1,-1,-1,-1,-1,-1,-1,-1,-1,-1,-1,-1,-1,-1,-1,-1,-1,-1,-1,-1,-1,-1,-1,-1,-1,-1,-1,-1,-1,-1,-1,-1,-1,-1,-1,-1,-1,-1,-1,-1,-1,-1,-1,-1,-1,-1,-1,-1,-1,-1,-1,-1,-1,-1,-1,-1,-1,-1,-1,-1,-1,-1,-1,-1,-1,-1,-1,-1,-1,-1,-1,-1,-1,-1,-1,-1,-1,-1,-1,-1,-1,-1,-1,-1,-1,-1,-1,-1,-1,-1,-1,-1,-1,-1,-1,-1,-1,-1,-1,-1,-1,-1,-1,-1,-1,-1,-1,-1,-1,-1,-1,-1,-1,-1,-1,-1,-1,-1,-1,-1,-1,-1,-1,-1,-1,-1,-1,-1,-1,-1,-1,-1,-1,-1,-1,-1,-1,-1,-1,-1,-1,-1,-1,-1,-1,-1,-1,-1,-1,-1,-1,-1,-1,-1,-1,-1,-1,-1,-1,-1,-1,-1,-1,-1,-1,-1,-1,-1,-1,-1,-1,-1,-1,-1,-1,-1,-1,-1,-1,-1,-1,-1,-1,-1,-1,-1,-1],"loss_changes":[2.6251516E7,6.0796865E6,6.17794E6,9.9280875E5,9.15692E5,1.237657E6,7.01068E5,1.495545E5,1.2115532E5,1.685685E5,2.5276775E5,2.18304E5,3.68687E5,1.98353E5,2.0262E4,2.309275E4,1.8221E4,2.7835938E4,4.393338E4,6.974819E4,4.030175E4,6.279E4,7.5290375E4,6.69105E4,3.1605E4,8.2695E4,1.02787E5,6.505525E4,3.84215E4,1.7812E4,9.100305E3,2.94475E3,3.962125E3,3.32575E3,5.8115625E3,9.989391E3,9.914034E3,1.1745175E4,2.505014E4,1.7752531E4,1.3074031E4,1.2305406E4,1.7792438E4,2.679325E4,1.5785625E4,2.61855E4,4.8606312E4,3.0059E4,1.209175E4,3.2405625E3,2.2731125E4,2.39045E4,1.617025E4,2.9547E4,1.2359125E4,1.6480875E4,1.830125E4,2.6595625E3,1.3957E4,1.300925E4,5.3E1,4.228672E3,0E0,6.963125E2,4.915625E2,6.423125E2,9.704375E2,1.89525E3,9.455469E2,1.931875E3,1.6410703E3,2.624375E3,1.3703496E3,6.3778916E3,7.786546E3,6.439879E3,4.987838E3,6.167078E3,4.1859688E3,9.937969E3,4.87325E3,5.088625E3,3.7904531E3,5.6484844E3,3.8910156E3,2.1016297E4,6.062742E3,1.02260625E4,6.904625E3,6.161E3,1.31995625E4,1.50029375E4,5.1004375E3,1.4916156E4,0E0,9.889875E3,1.1034625E4,7.5265E3,2.541625E3,1.2044551E3,4.4020938E3,2.706875E3,7.3145625E3,9.3580625E3,1.1986625E4,4.635375E3,2.6080625E3,7.645E3,1.098E4,0E0,1.2895E3,1.2709125E4,1.10540625E4,1.5563E4,2.14377E3,6.642008E3,4.11E2,6.2325E3,3.85425E3,8.5705E3,0E0,0E0,1.4414383E4,0E0,0E0,3.6453125E1,1.62125E2,2.78125E2,3.002643E2,5.831875E2,1.1661621E3,3.5210938E2,6.350625E2,1.7571875E3,4.601211E2,4.2156738E2,5.730078E2,1.0398594E3,1.3849062E3,5.916836E2,1.2501946E3,3.142315E3,1.7810781E3,1.2597125E3,1.14225E3,2.4741484E3,3.1387012E3,3.5146343E3,0E0,1.7347787E3,1.67879E3,2.979207E3,1.2310137E3,2.4866172E3,2.0835938E3,4.8098164E3,0E0,7.1325312E3,7.003501E3,1.9875E3,1.3752266E3,2.1707812E3,2.201039E3,1.0798047E3,2.2625469E3,2.1715703E3,2.9332344E3,3.6264219E3,3.0823984E3,4.9286562E3,5.0002656E3,0E0,3.8139688E3,9.50575E3,3.0352031E3,6.1436875E3,3.7559717E3,8.712391E3,2.4619688E3,4.9555E3,5.746422E3,4.933375E3,1.8319688E3,2.9750938E3,5.6552344E2,4.5965625E3,5.932203E3,4.0963125E3,1.884746E4,1.113025E4,3.4883438E3,6.0217188E3,1.4373252E3,1.883625E3,0E0,4.3190186E1,2.5044052E1,2.0907344E3,3.3851094E3,2.3176875E3,5.519536E2,8.100875E3,5.353961E3,2.7530625E3,3.4600469E3,6.7775E3,1.0713781E4,3.969375E3,4.59325E3,2.492875E3,7.567251E2,4.70525E3,6.8154375E3,3.983125E3,3.6765625E3,9.9809375E2,3.29475E3,6.2409375E3,2.2803086E4,6.9115938E3,7.381125E3,1.3655375E4,1.6581469E4,0E0,0E0,6.4974375E3,0E0,0E0,0E0,6.4475E3,1.1221074E3,1.865875E3,0E0,3.13375E3,1.6797809E4,0E0,0E0,0E0,0E0,0E0,0E0,0E0,0E0,0E0,0E0,0E0,0E0,0E0,0E0,0E0,0E0,0E0,0E0,0E0,0E0,0E0,0E0,0E0,0E0,0E0,0E0,0E0,0E0,0E0,0E0,0E0,0E0,0E0,0E0,0E0,0E0,0E0,0E0,0E0,0E0,0E0,0E0,0E0,0E0,0E0,0E0,0E0,0E0,0E0,0E0,0E0,0E0,0E0,0E0,0E0,0E0,0E0,0E0,0E0,0E0,0E0,0E0,0E0,0E0,0E0,0E0,0E0,0E0,0E0,0E0,0E0,0E0,0E0,0E0,0E0,0E0,0E0,0E0,0E0,0E0,0E0,0E0,0E0,0E0,0E0,0E0,0E0,0E0,0E0,0E0,0E0,0E0,0E0,0E0,0E0,0E0,0E0,0E0,0E0,0E0,0E0,0E0,0E0,0E0,0E0,0E0,0E0,0E0,0E0,0E0,0E0,0E0,0E0,0E0,0E0,0E0,0E0,0E0,0E0,0E0,0E0,0E0,0E0,0E0,0E0,0E0,0E0,0E0,0E0,0E0,0E0,0E0,0E0,0E0,0E0,0E0,0E0,0E0,0E0,0E0,0E0,0E0,0E0,0E0,0E0,0E0,0E0,0E0,0E0,0E0,0E0,0E0,0E0,0E0,0E0,0E0,0E0,0E0,0E0,0E0,0E0,0E0,0E0,0E0,0E0,0E0,0E0,0E0,0E0,0E0,0E0,0E0,0E0,0E0,0E0,0E0,0E0,0E0,0E0,0E0,0E0,0E0,0E0,0E0,0E0,0E0,0E0,0E0,0E0,0E0,0E0,0E0,0E0,0E0,0E0,0E0,0E0,0E0,0E0,0E0,0E0,0E0],"parents":[2147483647,0,0,1,1,2,2,3,3,4,4,5,5,6,6,7,7,8,8,9,9,10,10,11,11,12,12,13,13,14,14,15,15,16,16,17,17,18,18,19,19,20,20,21,21,22,22,23,23,24,24,25,25,26,26,27,27,28,28,29,29,30,30,31,31,32,32,33,33,34,34,35,35,36,36,37,37,38,38,39,39,40,40,41,41,42,42,43,43,44,44,45,45,46,46,47,47,48,48,49,49,50,50,51,51,52,52,53,53,54,54,55,55,56,56,57,57,58,58,59,59,60,60,61,61,63,63,64,64,65,65,66,66,67,67,68,68,69,69,70,70,71,71,72,72,73,73,74,74,75,75,76,76,77,77,78,78,79,79,80,80,81,81,82,82,83,83,84,84,85,85,86,86,87,87,88,88,89,89,90,90,91,91,92,92,93,93,95,95,96,96,97,97,98,98,99,99,100,100,101,101,102,102,103,103,104,104,105,105,106,106,107,107,108,108,110,110,111,111,112,112,113,113,114,114,115,115,116,116,117,117,118,118,119,119,122,122,125,125,126,126,127,127,128,128,129,129,130,130,131,131,132,132,133,133,134,134,135,135,136,136,137,137,138,138,139,139,140,140,141,141,142,142,143,143,144,144,145,145,146,146,147,147,149,149,150,150,151,151,152,152,153,153,154,154,155,155,157,157,158,158,159,159,160,160,161,161,162,162,163,163,164,164,165,165,166,166,167,167,168,168,169,169,170,170,172,172,173,173,174,174,175,175,176,176,177,177,178,178,179,179,180,180,181,181,182,182,183,183,184,184,185,185,186,186,187,187,188,188,189,189,190,190,191,191,192,192,193,193,195,195,196,196,197,197,198,198,199,199,200,200,201,201,202,202,203,203,204,204,205,205,206,206,207,207,208,208,209,209,210,210,211,211,212,212,213,213,214,214,215,215,216,216,217,217,218,218,219,219,220,220,221,221,222,222,225,225,229,229,230,230,231,231,233,233,234,234],"right_children":[2,4,6,8,10,12,14,16,18,20,22,24,26,28,30,32,34,36,38,40,42,44,46,48,50,52,54,56,58,60,62,64,66,68,70,72,74,76,78,80,82,84,86,88,90,92,94,96,98,100,102,104,106,108,110,112,114,116,118,120,122,124,-1,126,128,130,132,134,136,138,140,142,144,146,148,150,152,154,156,158,160,162,164,166,168,170,172,174,176,178,180,182,184,186,-1,188,190,192,194,196,198,200,202,204,206,208,210,212,214,-1,216,218,220,222,224,226,228,230,232,234,-1,-1,236,-1,-1,238,240,242,244,246,248,250,252,254,256,258,260,262,264,266,268,270,272,274,276,278,280,282,-1,284,286,288,290,292,294,296,-1,298,300,302,304,306,308,310,312,314,316,318,320,322,324,-1,326,328,330,332,334,336,338,340,342,344,346,348,350,352,354,356,358,360,362,364,366,368,-1,370,372,374,376,378,380,382,384,386,388,390,392,394,396,398,400,402,404,406,408,410,412,414,416,418,420,422,424,-1,-1,426,-1,-1,-1,428,430,432,-1,434,436,-1,-1,-1,-1,-1,-1,-1,-1,-1,-1,-1,-1,-1,-1,-1,-1,-1,-1,-1,-1,-1,-1,-1,-1,-1,-1,-1,-1,-1,-1,-1,-1,-1,-1,-1,-1,-1,-1,-1,-1,-1,-1,-1,-1,-1,-1,-1,-1,-1,-1,-1,-1,-1,-1,-1,-1,-1,-1,-1,-1,-1,-1,-1,-1,-1,-1,-1,-1,-1,-1,-1,-1,-1,-1,-1,-1,-1,-1,-1,-1,-1,-1,-1,-1,-1,-1,-1,-1,-1,-1,-1,-1,-1,-1,-1,-1,-1,-1,-1,-1,-1,-1,-1,-1,-1,-1,-1,-1,-1,-1,-1,-1,-1,-1,-1,-1,-1,-1,-1,-1,-1,-1,-1,-1,-1,-1,-1,-1,-1,-1,-1,-1,-1,-1,-1,-1,-1,-1,-1,-1,-1,-1,-1,-1,-1,-1,-1,-1,-1,-1,-1,-1,-1,-1,-1,-1,-1,-1,-1,-1,-1,-1,-1,-1,-1,-1,-1,-1,-1,-1,-1,-1,-1,-1,-1,-1,-1,-1,-1,-1,-1,-1,-1,-1,-1,-1,-1,-1,-1,-1,-1,-1,-1,-1,-1,-1,-1,-1,-1,-1,-1,-1],"split_conditions":[3.6169615E0,2.5559044E0,4.7648373E0,1.8942363E0,3.1117742E0,4.0682735E0,5.3033047E0,1.47147E0,2.2613592E0,3.3408103E0,3.7612002E0,4.189655E0,4.4998097E0,4.7049327E0,1E0,1.1724023E0,1.7006766E0,2.5478032E0,3.1354942E0,2.8449564E0,3.6992505E0,3.4965076E0,4.3307333E0,4.0943446E0,3.9702919E0,4.3307333E0,4.7049327E0,4.762174E0,4.7543397E0,5.3033047E0,1E0,1.0234189E0,1.3278971E0,2.1007137E0,2.3094614E0,2.0941505E0,3.6992505E0,2.6862135E0,4.189655E0,2.971747E0,3.1780539E0,3.4481764E0,3.8501475E0,3.336403E0,3.3821483E0,4.063387E0,5.3033047E0,3.583519E0,3.8960764E0,2.5649493E0,4.35131E0,4.0943446E0,4.519307E0,4.5108595E0,1E0,4.4162335E0,1.8E1,4.519307E0,5.3033047E0,1E0,1E0,1E0,-2.3316418E-1,8.154253E-1,3.0933125E0,1E0,2E0,1E0,2E0,2E0,2.7847025E0,2E0,2E0,2.8935335E0,1E0,2.4231565E0,3.1354942E0,3.5896943E0,1E0,4.35131E0,3.0365384E0,3.0910425E0,2.9957323E0,2.9052603E0,3.5263605E0,1E0,2.656158E0,3.3746138E0,5.3033047E0,3.465736E0,3.8918202E0,3.7841897E0,1E0,4.0073333E0,1.0572981E1,1E0,4.1743875E0,1E0,4.7543397E0,4.19E0,6E0,1E0,5E0,1E0,4.4162335E0,4.2195077E0,1E0,4.4162335E0,4.762174E0,7.863848E0,4.762174E0,5.3033047E0,4.2195077E0,5.3033047E0,4.16E0,9.26E0,1E0,1.359E1,1E0,1E0,3.7539673E-1,1.1516418E1,2.89E0,7.843134E0,1.1034205E0,7.030408E-1,9.4680786E-1,1.1069529E0,2.31E0,2E0,1E0,1E0,2.2361248E0,1.559566E0,1E0,1E0,1E0,1E0,1.7592444E0,2E0,3.3322046E0,1E0,1E0,1E0,6E0,2.0260882E0,3.1396163E0,1E0,4.077134E0,2.6645162E0,1E0,2E0,1E0,3.5343287E0,3.3322046E0,2.9214396E0,-3.2119521E-1,3.0365384E0,2.0666096E0,3.2386785E0,4.7543397E0,3.2334886E0,3.2334886E0,3.8501475E0,3.563288E0,5.35E0,3.7841897E0,1E0,3E0,1.5E1,1E0,5.216246E0,5.45E0,1.1435857E0,3.3672957E0,3.4339871E0,4.46E0,1E0,4.2195077E0,3.750059E-1,1.4781896E0,3.3672957E0,3.8960764E0,5E0,1E0,1E0,7E0,3.7612002E0,3E0,3.8434722E0,1.8809906E0,1.3862944E0,1.1E1,3.8434722E0,4.982571E0,4.17E0,7.03E0,1E0,1E0,5E-1,9.26E0,1.036E1,6E0,4.221592E0,1.2308095E0,8.15E0,5.84E0,1E0,4.5108595E0,1E0,1E0,1E0,1.393E1,1E0,2.69E0,1E0,1E0,3E0,1E0,7E0,1E0,3.7630725E0,1E0,-4.2563716E-1,2.7762036E0,1E0,-5.5035466E-1,7.260237E0,1.9953533E0,4.762174E0,5E0,1E0,7.168976E0,1.3E1,4.34E0,8.57054E0,-1.3720948E0,-5.525853E-1,-5.277685E-1,-5.058139E-1,-4.8989984E-1,-4.733214E-1,-4.5593417E-1,-2.9406065E-1,1.184434E0,-4.0493068E-1,-4.3704394E-1,-3.874748E-1,7.212111E-2,-3.5858366E-1,-2.388195E-1,-3.9823362E-1,-3.3086646E-1,-3.6485893E-1,-3.2894522E-1,-2.5515667E-1,2.6970747E-1,-2.315298E-1,-8.944751E-2,-3.0907315E-1,-2.4822047E-1,-2.1485998E-1,9.784106E-2,-3.0156967E-1,-2.602802E-1,-1.2913829E-1,-2.0592546E-1,-7.279314E-2,8.2792735E-1,-1.2142543E-1,4.9484515E-1,-1.945925E-1,-9.406324E-3,-1.6544743E-2,-3.8990605E-1,-1.22156635E-1,-7.143323E-2,-1.1328221E-1,-7.653953E-3,9.502378E-2,5.021069E-1,5.535546E-1,3.0440664E0,-2.1336228E-2,4.8529487E-2,8.779403E-2,4.7354552E-1,2.5291127E-1,1.0721505E-1,3.487041E-1,8.2998604E-1,3.5879397E-1,8.8570553E-1,6.9211197E-1,1.3006283E0,4.187497E0,1.3661778E0,2.3384078E-1,3.7685043E-1,4.198856E0,3.99762E-1,3.6428055E-1,5.5905634E-1,5.6818855E-1,2.706056E0,4.4122738E-1,5.84381E-1,5.7407117E-1,7.917664E-1,5.789928E-1,8.698632E-1,7.200396E-1,9.2066056E-1,6.706925E-1,4.3864685E-1,7.865799E-1,1.2508233E0,9.3071896E-1,2.5829477E0,9.7934544E-1,1.6102307E0,1.1384108E0,4.0118566E0,2.408829E0,4.9505897E0,2.4153528E0,1.1280541E0,2.166488E0,7.748942E-1,9.39018E-1,1.1932702E0,1.0502294E0,1.297321E0,5.062241E-1,7.080902E0,1.0886796E0,5.451465E0,1.377623E0,2.4123206E0,4.757672E0,1.4018852E0,3.2504344E0,1.8568765E0,1.3320696E0,1.6784134E0,1.8498739E0,2.1646097E0,2.7704132E0,2.010354E0,1.3605164E0,-3.19386E-1,2.4525628E0,4.781371E0,4.129821E0,1.0394014E0,1.5203717E0,1.840167E0,8.493558E0,1.8935118E0,1.9194714E0,2.2892063E0,3.998595E-1,2.619983E0,4.95911E0,2.4200215E0,1.1961422E0,-3.0604574E-1,2.6850243E0,3.0930016E0,1.8804901E0,4.5836738E-1,-1.12544246E-1,-5.922326E-1,2.6758873E0,1.9613124E0,3.153104E0,6.510731E0,3.4280953E0,2.7879937E0,1.4961535E0,-3.0878678E-1,4.5871043E0,1.7013764E0,8.2964826E-1,3.5416455E0,2.6721063E0,3.0855277E0,-8.128555E-2,4.63429E0,3.223654E0,3.845937E0,3.9133093E0,6.0371647E0,3.611804E0,6.193425E0,3.9763553E0,4.762973E0,4.9566975E0,4.5147383E-1,3.6511462E0,1.3068823E0,4.208648E0,1.1005121E0,5.005881E0,1.5947156E0,5.1711264E0,5.6455154E-2,4.190717E0,6.42106E0,5.867057E0,1.3441584E0,7.1327415E0,4.3536997E0,3.7977378E0,5.0556593E0,8.684572E0,-3.3095455E-1,8.075708E0,6.257532E-1,5.9061418E0,2.8189647E0,2.7503836E-1,7.0532303E0,9.83291E0,-3.3435187E-1,6.392906E0,2.0531795E0,7.2474566E0,8.725924E0,8.6926574E-1,4.923106E0,1.054709E1,4.1107473E0,1.0123909E1,2.2877877E0,8.241145E0,-8.475176E-1],"split_indices":[9,9,5,9,9,9,7,9,9,5,5,5,6,9,19,9,9,5,5,9,5,6,5,7,6,5,9,7,6,6,155,9,9,5,5,9,5,5,5,5,7,6,7,9,9,6,6,6,5,7,7,7,7,5,21,9,2,7,6,177,139,127,0,9,7,93,11,93,11,11,5,11,11,5,17,9,6,5,143,7,6,5,6,7,7,93,9,5,7,5,6,7,19,7,0,17,6,115,6,0,11,155,11,177,9,7,17,9,7,0,7,5,7,5,0,0,146,0,151,152,0,0,0,0,0,9,9,9,0,11,115,93,5,9,120,168,21,93,9,11,6,125,130,143,11,9,6,130,0,7,130,11,36,6,6,6,0,6,5,7,6,6,6,7,7,3,7,93,11,2,142,0,0,5,7,7,0,66,7,5,5,6,5,11,166,115,11,5,11,9,7,6,2,9,0,0,0,169,29,1,0,3,11,9,6,3,0,130,5,140,177,159,0,127,0,37,154,11,172,11,151,9,151,0,0,154,0,0,0,7,2,158,0,2,0,0,0,0,0,0,0,0,0,0,0,0,0,0,0,0,0,0,0,0,0,0,0,0,0,0,0,0,0,0,0,0,0,0,0,0,0,0,0,0,0,0,0,0,0,0,0,0,0,0,0,0,0,0,0,0,0,0,0,0,0,0,0,0,0,0,0,0,0,0,0,0,0,0,0,0,0,0,0,0,0,0,0,0,0,0,0,0,0,0,0,0,0,0,0,0,0,0,0,0,0,0,0,0,0,0,0,0,0,0,0,0,0,0,0,0,0,0,0,0,0,0,0,0,0,0,0,0,0,0,0,0,0,0,0,0,0,0,0,0,0,0,0,0,0,0,0,0,0,0,0,0,0,0,0,0,0,0,0,0,0,0,0,0,0,0,0,0,0,0,0,0,0,0,0,0,0,0,0,0,0,0,0,0,0,0,0,0,0,0,0,0,0,0,0,0,0,0,0,0,0,0,0],"split_type":[0,0,0,0,0,0,0,0,0,0,0,0,0,0,0,0,0,0,0,0,0,0,0,0,0,0,0,0,0,0,0,0,0,0,0,0,0,0,0,0,0,0,0,0,0,0,0,0,0,0,0,0,0,0,0,0,0,0,0,0,0,0,0,0,0,0,0,0,0,0,0,0,0,0,0,0,0,0,0,0,0,0,0,0,0,0,0,0,0,0,0,0,0,0,0,0,0,0,0,0,0,0,0,0,0,0,0,0,0,0,0,0,0,0,0,0,0,0,0,0,0,0,0,0,0,0,0,0,0,0,0,0,0,0,0,0,0,0,0,0,0,0,0,0,0,0,0,0,0,0,0,0,0,0,0,0,0,0,0,0,0,0,0,0,0,0,0,0,0,0,0,0,0,0,0,0,0,0,0,0,0,0,0,0,0,0,0,0,0,0,0,0,0,0,0,0,0,0,0,0,0,0,0,0,0,0,0,0,0,0,0,0,0,0,0,0,0,0,0,0,0,0,0,0,0,0,0,0,0,0,0,0,0,0,0,0,0,0,0,0,0,0,0,0,0,0,0,0,0,0,0,0,0,0,0,0,0,0,0,0,0,0,0,0,0,0,0,0,0,0,0,0,0,0,0,0,0,0,0,0,0,0,0,0,0,0,0,0,0,0,0,0,0,0,0,0,0,0,0,0,0,0,0,0,0,0,0,0,0,0,0,0,0,0,0,0,0,0,0,0,0,0,0,0,0,0,0,0,0,0,0,0,0,0,0,0,0,0,0,0,0,0,0,0,0,0,0,0,0,0,0,0,0,0,0,0,0,0,0,0,0,0,0,0,0,0,0,0,0,0,0,0,0,0,0,0,0,0,0,0,0,0,0,0,0,0,0,0,0,0,0,0,0,0,0,0,0,0,0,0,0,0,0,0,0,0,0,0,0,0,0,0,0,0,0,0,0,0,0,0,0,0,0,0,0,0,0,0,0,0,0,0,0,0,0,0,0],"sum_hessian":[3.23347E5,3.12003E5,1.1344E4,2.65152E5,4.6851E4,9.675E3,1.669E3,1.89437E5,7.5715E4,3.2915E4,1.3936E4,6.195E3,3.48E3,1.21E3,4.59E2,1.13784E5,7.5653E4,4.7941E4,2.7774E4,2.849E4,4.425E3,1.1489E4,2.447E3,5.136E3,1.059E3,2.337E3,1.143E3,6.42E2,5.68E2,4.45E2,1.4E1,5.0518E4,6.3266E4,4.4033E4,3.162E4,3.8801E4,9.14E3,2.5885E4,1.889E3,1.8498E4,9.992E3,3.409E3,1.016E3,7.857E3,3.632E3,2.214E3,2.33E2,4.048E3,1.088E3,3.35E2,7.24E2,1.53E3,8.07E2,8.89E2,2.54E2,3.57E2,2.85E2,1.3E2,4.38E2,1.22E2,3.23E2,1.3E1,1E0,2.4043E4,2.6475E4,3.2935E4,3.0331E4,3.7714E4,6.319E3,2.6915E4,4.705E3,2.3606E4,1.5195E4,9.082E3,5.8E1,1.9307E4,6.578E3,1.866E3,2.3E1,1.4137E4,4.361E3,6.69E3,3.302E3,2.678E3,7.31E2,9.05E2,1.11E2,5.155E3,2.702E3,1.935E3,1.697E3,1.912E3,3.02E2,2.28E2,5E0,1.346E3,2.702E3,5.75E2,5.13E2,6E0,3.29E2,4.53E2,2.71E2,6.62E2,8.68E2,5.7E2,2.37E2,4.78E2,4.11E2,7.7E1,1.77E2,1.98E2,1.59E2,2.81E2,4E0,2E1,1.1E2,3.56E2,8.2E1,1.21E2,1E0,3.2E2,3E0,1.2E1,1E0,3.751E3,2.0292E4,2.6473E4,2E0,3.1568E4,1.367E3,4.169E3,2.6162E4,3.6225E4,1.489E3,1.209E3,5.11E3,3.273E3,2.3642E4,3.956E3,7.49E2,2.869E3,2.0737E4,1.666E3,1.3529E4,6.922E3,2.16E3,5.4E1,4E0,1.2103E4,7.204E3,6.001E3,5.77E2,1.661E3,2.05E2,2.1E1,2E0,1.4125E4,1.2E1,2.955E3,1.406E3,5.008E3,1.682E3,1.389E3,1.913E3,1.095E3,1.583E3,5.05E2,2.26E2,8.51E2,5.4E1,4E0,1.07E2,3.857E3,1.298E3,2.7E3,2E0,1.277E3,6.58E2,1.275E3,4.22E2,1.252E3,6.6E2,2.8E2,2.2E1,1.38E2,9E1,1.331E3,1.5E1,2.405E3,2.97E2,5.55E2,2E1,5.08E2,5E0,3E0,3E0,2.51E2,7.8E1,4.48E2,5E0,2.21E2,5E1,6.36E2,2.6E1,7.02E2,1.66E2,2.36E2,3.34E2,2.31E2,6E0,2.69E2,2.09E2,2.86E2,1.25E2,9.7E1,8E1,1.84E2,1.4E1,2.9E1,1.3E2,2.54E2,2.7E1,2E0,2E0,1.9E1,1E0,1.09E2,1E0,3.5E2,6E0,6.9E1,1.3E1,1.17E2,4E0,2E0,1E0,1.287E3,2.464E3,1.0118E4,1.0174E4,1.3909E4,1.2564E4,1E0,1E0,4.418E3,2.715E4,1.331E3,3.6E1,3.997E3,1.72E2,2.5197E4,9.65E2,1.513E4,2.1095E4,1.479E3,1E1,1.054E3,1.55E2,3.718E3,1.392E3,3.204E3,6.9E1,7.847E3,1.5795E4,8.16E2,3.14E3,7.4E2,9E0,2.816E3,5.3E1,2.0399E4,3.38E2,1.607E3,5.9E1,9.46E3,4.069E3,1.992E3,4.93E3,2.032E3,1.28E2,5.1E1,3E0,9.068E3,3.035E3,7.132E3,7.2E1,1.1E3,4.901E3,5.41E2,3.6E1,1.602E3,5.9E1,1.56E2,4.9E1,1.4E1,7E0,1.1342E4,2.783E3,6E0,6E0,2.565E3,3.9E2,1.405E3,1E0,4.185E3,8.23E2,1.282E3,4E2,1.298E3,9.1E1,1.403E3,5.1E2,6.52E2,4.43E2,1.488E3,9.5E1,4.97E2,8E0,8.8E1,1.38E2,8.48E2,3E0,4.8E1,6E0,8.6E1,2.1E1,3.1E1,3.826E3,7.48E2,5.5E2,1.51E3,1.19E3,1E0,1E0,1.275E3,2E0,6.42E2,1.6E1,2E0,1.273E3,2.1E1,4.01E2,4.32E2,8.2E2,2.71E2,3.89E2,2.25E2,5.5E1,2.1E1,1E0,1.32E2,6E0,8.5E1,5E0,9.27E2,4.04E2,3E0,1.2E1,1.549E3,8.56E2,5E0,2.92E2,6E0,5.49E2,1.5E1,5E0,2.11E2,2.97E2,2E0,1E0,2E0,1E0,2.04E2,4.7E1,7.6E1,2E0,3.73E2,7.5E1,4E0,1E0,2.13E2,8E0,6E0,4.4E1,3.96E2,2.4E2,1E0,2.5E1,5.06E2,1.96E2,1.45E2,2.1E1,2.31E2,5E0,2.16E2,1.18E2,2.3E2,1E0,2E0,4E0,2.65E2,4E0,2.04E2,5E0,2.85E2,1E0,1.3E1,1.12E2,9.6E1,1E0,7.1E1,9E0,5.5E1,1.29E2,1.2E1,2E0,2.8E1,1E0,1.22E2,8E0,2E0,2.52E2,2.6E1,1E0,1.5E1,4E0,6.2E1,2.88E2,1E0,5E0,6.7E1,2E0,1.16E2,1E0,2E0,2E0],"tree_param":{"num_deleted":"0","num_feature":"184","num_nodes":"437","size_leaf_vector":"1"}},{"base_weights":[1.1203481E-2,-1.7051045E0,4.1527733E1,-3.4933078E0,6.719694E0,2.9863028E1,8.081191E1,-4.5908074E0,-1.1750983E0,4.2065606E0,1.2575607E1,2.5121437E1,4.3483395E1,6.3614456E1,1.0197893E2,-5.2304006E0,-3.8029726E0,-1.9694694E0,2.963052E-1,3.1193957E0,7.041646E0,1.1159798E1,2.0212934E1,2.2889084E1,3.3380356E1,4.1874886E1,7.219612E1,5.6269352E1,7.456795E1,8.996262E1,1.2725352E2,-5.632248E0,-4.922334E0,-4.0611296E0,-3.1194377E0,-2.291418E0,-1.0193918E0,6.1588988E-2,3.49394E0,1.9900018E0,4.644574E0,6.271356E0,1.2705028E1,9.928379E0,1.5482055E1,1.8573584E1,3.0702248E1,2.1132584E1,2.753567E1,2.9200499E1,3.5820084E1,3.6987682E1,4.578914E1,8.602556E1,5.9461575E1,4.5977634E1,5.992798E1,-8.595059E0,7.535856E1,7.501504E1,9.536439E1,6.548311E1,1.2859712E2,-5.9000254E0,-5.479063E0,-5.0449424E0,-4.596943E0,-4.3103924E0,-3.7316716E0,-3.2659385E0,-1.4531578E0,-2.7475884E0,-1.8521765E0,-1.2573035E0,7.681354E-1,-3.6792377E-1,1.0709578E0,3.3169234E0,2.6355806E1,1.4782488E0,3.2622182E0,4.059605E0,6.8401866E0,5.6090198E0,8.100385E0,1.1430011E1,1.6592115E1,9.074592E0,1.2493695E1,3.2837975E1,1.5116744E1,1.5577784E1,2.0148922E1,1.3752887E1,3.4103336E1,4.2428856E1,2.0803087E1,5.802532E0,2.7318342E1,2.8487425E1,4.2750225E1,3.3984844E1,3.9713905E1,3.53829E1,4.4876686E1,4.283415E1,5.078923E1,9.181401E1,4.674422E1,6.0610577E1,-9.306663E-1,4.709151E1,2.1191551E1,2.613781E1,6.036957E1,-1.0228736E0,6.6200423E-1,7.1905594E1,1.0089071E2,7.533238E1,-5.8589324E-2,8.338512E1,1.0043155E2,8.572105E1,-1.3646731E0,-1.1113555E0,1.2897853E2,-6.1671696E0,-5.8093767E0,-5.4802465E0,1.0336037E0,-5.2046943E0,-4.8819695E0,-4.62122E0,-1.0035667E0,-4.3129487E0,1.7306753E1,-4.4365997E0,-3.6671698E0,-3.326547E0,-1.9025818E0,-1.4918345E0,2.6105688E0,-4.3319006E0,-2.6808453E0,-7.675508E-1,-1.9789622E0,-1.8414072E0,-8.603504E-1,6.773116E-1,1.2639891E1,-7.925466E-1,4.085657E-2,-1.2116573E0,1.3591005E0,2.7215455E0,7.108085E0,5.300365E0,4.4116776E1,2.9244006E0,1.2838907E0,3.0603287E0,4.923096E0,3.4835796E0,4.831089E0,6.452254E0,1.5919245E1,4.1425347E0,6.3751125E0,7.5200343E0,1.2181949E1,4.791161E1,1.1186801E1,1.6053602E1,5.3640327E1,8.280521E0,1.1018194E1,